{"learner":{"attributes":{"best_iteration":"155","best_score":"0.7750027755817465","scikit_learn":"{\"_estimator_type\": \"classifier\"}"},"feature_names":[],"feature_types":[],"gradient_booster":{"model":{"cats":{"enc":[],"feature_segments":[],"sorted_idx":[]},"gbtree_model_param":{"num_parallel_tree":"1","num_trees":"216"},"iteration_indptr":[0,1,2,3,4,5,6,7,8,9,10,11,12,13,14,15,16,17,18,19,20,21,22,23,24,25,26,27,28,29,30,31,32,33,34,35,36,37,38,39,40,41,42,43,44,45,46,47,48,49,50,51,52,53,54,55,56,57,58,59,60,61,62,63,64,65,66,67,68,69,70,71,72,73,74,75,76,77,78,79,80,81,82,83,84,85,86,87,88,89,90,91,92,93,94,95,96,97,98,99,100,101,102,103,104,105,106,107,108,109,110,111,112,113,114,115,116,117,118,119,120,121,122,123,124,125,126,127,128,129,130,131,132,133,134,135,136,137,138,139,140,141,142,143,144,145,146,147,148,149,150,151,152,153,154,155,156,157,158,159,160,161,162,163,164,165,166,167,168,169,170,171,172,173,174,175,176,177,178,179,180,181,182,183,184,185,186,187,188,189,190,191,192,193,194,195,196,197,198,199,200,201,202,203,204,205,206,207,208,209,210,211,212,213,214,215,216],"tree_info":[0,0,0,0,0,0,0,0,0,0,0,0,0,0,0,0,0,0,0,0,0,0,0,0,0,0,0,0,0,0,0,0,0,0,0,0,0,0,0,0,0,0,0,0,0,0,0,0,0,0,0,0,0,0,0,0,0,0,0,0,0,0,0,0,0,0,0,0,0,0,0,0,0,0,0,0,0,0,0,0,0,0,0,0,0,0,0,0,0,0,0,0,0,0,0,0,0,0,0,0,0,0,0,0,0,0,0,0,0,0,0,0,0,0,0,0,0,0,0,0,0,0,0,0,0,0,0,0,0,0,0,0,0,0,0,0,0,0,0,0,0,0,0,0,0,0,0,0,0,0,0,0,0,0,0,0,0,0,0,0,0,0,0,0,0,0,0,0,0,0,0,0,0,0,0,0,0,0,0,0,0,0,0,0,0,0,0,0,0,0,0,0,0,0,0,0,0,0,0,0,0,0,0,0,0,0,0,0,0,0,0,0,0,0,0,0],"trees":[{"base_weights":[-8.598889E-8,1.0440735E0,-7.9519E-1,1.2577274E0,3.38252E-1,-3.293574E-1,-1.0081202E0,1.5328382E0,9.99263E-1,1.6210507E-1,4.7778386E-1,-1.2397529E-1,-5.3497106E-1,-1.0653945E0,-8.643778E-1,1.4240888E0,1.776698E0,9.4971544E-1,1.5150671E0,3.2469255E-1,1.6654423E-2,5.343383E-1,4.5726478E-2,2.8080123E-2,-1.9336832E-1,-4.8908618E-1,-9.635631E-1,-8.679826E-1,-1.120972E0,-9.665111E-1,-7.7162075E-1,1.2934523E0,1.4776821E0,1.8063544E0,1.6402193E0,1.0873331E0,8.29155E-1,1.3569149E0,1.5550749E0,-1.2775403E-1,3.547001E-1,-2.4205318E-1,8.98306E-2,4.8649693E-1,7.96171E-1,-1.3066101E-1,3.2002956E-1,-1.3570611E-1,1.3593355E-1,-3.4981635E-1,-9.324237E-2,-1.0762748E0,-4.6137303E-1,-1.3635283E0,-8.5411763E-1,-1.123625E0,-8.0322886E-1,-1.1709553E0,-9.400338E-1,-1.0514575E0,-6.986544E-1,-7.2023755E-1,-1.0780405E0,1.4346402E0,1.2256558E0,1.5294013E0,1.4063143E0,1.778333E0,7.5970985E-2,9.449054E-1,1.6560856E0,1.0186754E0,1.2187704E0,7.6159763E-1,9.4153357E-1,1.3893484E0,1.0707335E0,8.485911E-1,1.5603018E0,-6.5622956E-1,1.5978329E-1,1.2009389E-1,4.1501287E-1,-1.8666577E-1,-1.0986887E0,-8.201753E-2,2.0257297E-1,7.891733E-2,5.156721E-1,8.8057244E-1,4.7817397E-1,-2.4464914E-1,6.962884E-1,3.834159E-1,-1.2280755E0,-4.558012E-1,5.1311992E-2,1.9504991E-1,-3.8268486E-1,-8.040096E-1,-3.0047858E-1,-1.9010581E-1,3.3628747E-2,-1.7113124E0,-9.073163E-1,-5.8037037E-1,-3.6588392E-1,-7.094329E-2,-1.4703354E0,-7.155829E-1,-1.3252313E0,-8.4557295E-1,-1.2370865E0,-7.524735E-1,-1.1906817E0,-1.1992009E0,-1.0227143E0,-1.019823E0,-8.0506176E-1,-1.535226E0,-1.0286858E0,-3.8650936E-1,-8.029907E-1,-7.419024E-1,-9.5579185E-2,-1.0955175E0,1.1311774E0,5.079557E-2,5.897467E-2,4.9250443E-2,-3.134608E-2,4.967334E-2,6.15278E-2,4.7472157E-2,5.676197E-2,6.380614E-2,7.124782E-2,5.8135442E-2,-6.870746E-2,6.3133314E-2,6.792418E-2,4.0812526E-2,-6.6948526E-2,5.0135225E-2,4.2721212E-2,2.725287E-2,3.389745E-2,3.1311154E-2,4.0514357E-2,5.7734642E-2,5.2424524E-2,5.045447E-2,8.103911E-3,4.3232154E-2,-4.7820214E-2,6.430536E-2,6.0059283E-2,-7.420413E-2,-1.7184513E-2,-1.4681508E-2,1.7510794E-2,1.4577033E-2,-7.743047E-4,1.3050684E-2,2.260029E-2,-6.250178E-3,-4.3261956E-2,-5.78916E-2,3.0988758E-2,-1.1842357E-3,-7.770826E-2,8.79911E-3,-3.3369843E-2,-1.914354E-2,1.1474865E-2,2.3301521E-2,1.5730023E-2,3.7900276E-2,1.8215904E-2,1.3216978E-2,5.1021308E-2,-4.2797316E-2,-1.926963E-3,6.631649E-2,1.572687E-2,1.864475E-2,-1.78216E-2,2.6017956E-2,-7.455875E-2,7.12971E-3,-2.2258028E-2,4.0595382E-3,-3.1279586E-2,9.036537E-3,-3.1758126E-2,-2.6720764E-2,9.281675E-3,-6.0648825E-2,-2.7829073E-2,-1.7983202E-2,-6.6120266E-3,-1.7651916E-2,-4.3791574E-3,5.9224716E-3,-5.277427E-3,-7.8609005E-2,-5.835449E-2,-1.9747501E-2,-5.1929932E-2,-2.5778057E-2,-1.5069228E-2,-1.8509531E-2,-1.2501215E-3,-7.152627E-2,2.9806588E-2,-5.002037E-2,-6.8827555E-2,-3.4971014E-2,1.8058557E-4,-4.3674868E-2,-7.871684E-2,-2.2478154E-2,-5.0111458E-2,-7.3838E-2,-4.789438E-2,-3.885828E-2,-2.558768E-2,-2.6183615E-2,-5.1185463E-2,-4.1932277E-2,-4.8808835E-2,-1.88817E-2,-4.23168E-2,-4.6309214E-2,-3.6626134E-2,-5.950288E-2,-3.0383496E-2,-6.8512164E-2,-2.6954217E-2,-3.2715917E-2,-4.320477E-2,-2.264754E-2,1.3303859E-2,5.437736E-3,-3.465285E-2,-3.0192306E-2,1.2020316E-2,-1.5103763E-3,-7.245518E-2,-1.53661305E-2,-4.5174114E-2,-5.0718434E-2,6.354213E-2],"categories":[],"categories_nodes":[],"categories_segments":[],"categories_sizes":[],"default_left":[0,0,0,0,0,0,0,0,0,0,0,0,0,0,0,0,0,0,0,0,0,0,0,0,0,0,0,0,0,0,0,0,0,0,0,0,0,0,0,0,0,0,0,0,0,0,0,0,0,0,0,0,0,0,0,0,0,0,0,0,0,0,0,0,0,0,0,0,0,0,0,0,0,0,0,0,0,0,0,0,0,0,0,0,0,0,0,0,0,0,0,0,0,0,0,0,0,0,0,0,0,0,0,0,0,0,0,0,0,0,0,0,0,0,0,0,0,0,0,0,0,0,0,0,0,0,0,0,0,0,0,0,0,0,0,0,0,0,0,0,0,0,0,0,0,0,0,0,0,0,0,0,0,0,0,0,0,0,0,0,0,0,0,0,0,0,0,0,0,0,0,0,0,0,0,0,0,0,0,0,0,0,0,0,0,0,0,0,0,0,0,0,0,0,0,0,0,0,0,0,0,0,0,0,0,0,0,0,0,0,0,0,0,0,0,0,0,0,0,0,0,0,0,0,0,0,0,0,0,0,0,0,0,0,0,0,0,0,0,0,0,0,0,0,0,0,0,0,0,0,0,0,0],"id":0,"left_children":[1,3,5,7,9,11,13,15,17,19,21,23,25,27,29,31,33,35,37,39,41,43,45,47,49,51,53,55,57,59,61,63,65,67,69,71,73,75,77,79,81,83,85,87,89,91,93,95,97,99,101,103,105,107,109,111,113,115,117,119,121,123,125,127,129,131,133,135,-1,137,139,141,143,145,147,149,151,153,155,157,159,161,163,165,167,169,171,173,175,177,179,181,183,185,187,189,191,193,195,197,199,201,203,205,207,209,211,213,215,217,219,221,223,225,227,229,231,233,235,237,239,241,243,245,247,249,251,-1,-1,-1,-1,-1,-1,-1,-1,-1,-1,-1,-1,-1,-1,-1,-1,-1,-1,-1,-1,-1,-1,-1,-1,-1,-1,-1,-1,-1,-1,-1,-1,-1,-1,-1,-1,-1,-1,-1,-1,-1,-1,-1,-1,-1,-1,-1,-1,-1,-1,-1,-1,-1,-1,-1,-1,-1,-1,-1,-1,-1,-1,-1,-1,-1,-1,-1,-1,-1,-1,-1,-1,-1,-1,-1,-1,-1,-1,-1,-1,-1,-1,-1,-1,-1,-1,-1,-1,-1,-1,-1,-1,-1,-1,-1,-1,-1,-1,-1,-1,-1,-1,-1,-1,-1,-1,-1,-1,-1,-1,-1,-1,-1,-1,-1,-1,-1,-1,-1,-1,-1,-1,-1,-1,-1,-1],"loss_changes":[1.6735494E5,1.3141805E4,1.1349539E4,4.755375E3,4.9767334E2,1.5158511E3,6.4559375E2,8.568125E2,8.8015625E2,2.1171747E2,2.7608545E2,1.895122E2,3.5229932E2,6.1508984E2,2.1127539E2,1.5501562E2,3.7470703E1,5.2131055E2,1.700879E1,5.7439514E1,8.950122E1,1.2477515E2,6.337596E1,9.945109E1,1.9314532E2,2.632129E2,7.472717E1,2.0336621E2,3.95125E2,2.4153906E2,1.8396387E2,6.0734375E1,5.6492188E1,1.796289E1,1.822754E1,1.3136328E2,1.2668945E2,4.2473145E0,7.555664E0,4.017089E1,5.6049713E1,4.9254227E1,7.1414536E1,1.00449585E2,4.0967102E1,7.53356E1,5.0771164E1,1.3384253E2,1.0414365E2,1.07593994E2,9.2433586E1,7.673169E1,1.7565039E2,5.1088013E1,8.8067444E1,7.755371E1,1.9279346E2,1.4248828E2,1.0136133E2,8.745508E1,8.328235E1,1.3595654E2,6.62207E1,1.1951172E1,5.0719727E1,2.1355469E1,1.7011719E1,4.7070312E-1,0E0,5.9839676E1,3.0458984E0,4.429297E1,2.494043E1,7.167969E1,7.050244E1,4.543457E-1,1.0875076E1,1.0715232E1,4.2285156E0,2.4497997E1,2.5286057E1,2.7681196E1,4.1792908E1,2.6509838E1,4.23311E1,1.4238303E2,4.0344673E1,6.57214E1,6.432544E1,3.4215393E1,3.7940887E1,1.1370221E2,2.7581337E1,3.4019638E1,2.558145E1,5.2715317E1,5.9114223E1,9.320929E1,6.1137184E1,3.526239E1,8.744501E1,8.633061E1,6.1726707E1,6.8890076E0,9.288983E1,8.964966E1,2.7836877E2,4.2467293E1,1.6694824E1,1.2069385E2,4.4157654E1,8.3049255E1,4.053589E1,2.1452148E2,5.3482544E1,9.015234E1,1.0613281E2,8.455029E1,1.0842456E2,5.41109E1,8.283301E1,8.351949E1,1.1445227E2,1.3091016E2,3.347093E1,3.9769043E1,1.7049116E1,0E0,0E0,0E0,0E0,0E0,0E0,0E0,0E0,0E0,0E0,0E0,0E0,0E0,0E0,0E0,0E0,0E0,0E0,0E0,0E0,0E0,0E0,0E0,0E0,0E0,0E0,0E0,0E0,0E0,0E0,0E0,0E0,0E0,0E0,0E0,0E0,0E0,0E0,0E0,0E0,0E0,0E0,0E0,0E0,0E0,0E0,0E0,0E0,0E0,0E0,0E0,0E0,0E0,0E0,0E0,0E0,0E0,0E0,0E0,0E0,0E0,0E0,0E0,0E0,0E0,0E0,0E0,0E0,0E0,0E0,0E0,0E0,0E0,0E0,0E0,0E0,0E0,0E0,0E0,0E0,0E0,0E0,0E0,0E0,0E0,0E0,0E0,0E0,0E0,0E0,0E0,0E0,0E0,0E0,0E0,0E0,0E0,0E0,0E0,0E0,0E0,0E0,0E0,0E0,0E0,0E0,0E0,0E0,0E0,0E0,0E0,0E0,0E0,0E0,0E0,0E0,0E0,0E0,0E0,0E0,0E0,0E0,0E0,0E0,0E0,0E0],"parents":[2147483647,0,0,1,1,2,2,3,3,4,4,5,5,6,6,7,7,8,8,9,9,10,10,11,11,12,12,13,13,14,14,15,15,16,16,17,17,18,18,19,19,20,20,21,21,22,22,23,23,24,24,25,25,26,26,27,27,28,28,29,29,30,30,31,31,32,32,33,33,34,34,35,35,36,36,37,37,38,38,39,39,40,40,41,41,42,42,43,43,44,44,45,45,46,46,47,47,48,48,49,49,50,50,51,51,52,52,53,53,54,54,55,55,56,56,57,57,58,58,59,59,60,60,61,61,62,62,63,63,64,64,65,65,66,66,67,67,69,69,70,70,71,71,72,72,73,73,74,74,75,75,76,76,77,77,78,78,79,79,80,80,81,81,82,82,83,83,84,84,85,85,86,86,87,87,88,88,89,89,90,90,91,91,92,92,93,93,94,94,95,95,96,96,97,97,98,98,99,99,100,100,101,101,102,102,103,103,104,104,105,105,106,106,107,107,108,108,109,109,110,110,111,111,112,112,113,113,114,114,115,115,116,116,117,117,118,118,119,119,120,120,121,121,122,122,123,123,124,124,125,125,126,126],"right_children":[2,4,6,8,10,12,14,16,18,20,22,24,26,28,30,32,34,36,38,40,42,44,46,48,50,52,54,56,58,60,62,64,66,68,70,72,74,76,78,80,82,84,86,88,90,92,94,96,98,100,102,104,106,108,110,112,114,116,118,120,122,124,126,128,130,132,134,136,-1,138,140,142,144,146,148,150,152,154,156,158,160,162,164,166,168,170,172,174,176,178,180,182,184,186,188,190,192,194,196,198,200,202,204,206,208,210,212,214,216,218,220,222,224,226,228,230,232,234,236,238,240,242,244,246,248,250,252,-1,-1,-1,-1,-1,-1,-1,-1,-1,-1,-1,-1,-1,-1,-1,-1,-1,-1,-1,-1,-1,-1,-1,-1,-1,-1,-1,-1,-1,-1,-1,-1,-1,-1,-1,-1,-1,-1,-1,-1,-1,-1,-1,-1,-1,-1,-1,-1,-1,-1,-1,-1,-1,-1,-1,-1,-1,-1,-1,-1,-1,-1,-1,-1,-1,-1,-1,-1,-1,-1,-1,-1,-1,-1,-1,-1,-1,-1,-1,-1,-1,-1,-1,-1,-1,-1,-1,-1,-1,-1,-1,-1,-1,-1,-1,-1,-1,-1,-1,-1,-1,-1,-1,-1,-1,-1,-1,-1,-1,-1,-1,-1,-1,-1,-1,-1,-1,-1,-1,-1,-1,-1,-1,-1,-1,-1],"split_conditions":[4.763402E1,4.0024994E1,6.3529522E1,2.9347061E1,1.3E1,5.531727E1,5.715096E0,1.8987623E1,1.2E2,4.3416588E1,5.52E1,5.008992E1,1.97E1,-5.55E1,-5E-1,9.508085E0,1.9849434E1,3.4669872E1,1E0,3.9733927E0,1E-1,1.0254159E1,3.3333334E-1,9E0,7.399185E0,-3.1E0,5.879652E0,2.21E1,3.3333334E-1,4E-1,6.43E1,2.1246176E1,2.5495098E1,9.65E1,0E0,1.268387E1,1.07061825E1,5E-1,4E-1,4E-1,1E-1,7.34E1,3.3E1,0E0,4.6E1,1.115E2,8.300025E0,1.1111111E-1,6.08E1,5.8933544E0,1.3E1,-5.7E1,7.032982E0,-3.21E1,7.5726304E0,-4.3E1,6.9E1,5.45457E0,-9E-1,-6.2E1,-2.77E1,7.0907483E0,8E-1,3.3177812E0,9.3887615E0,-7E-1,0E0,-1.1E1,7.5970985E-2,9.1E0,3.82E1,7.41E1,3.324154E1,2.12E1,2.4E0,2.2222222E-1,9.6E1,3.3333334E-1,2.2222222E-1,1.06E2,9.65E1,8.752822E0,1.01120405E1,9.15E1,8E1,3.03E1,8E1,1.1111111E-1,4.5188496E1,1.104094E1,5.2E1,3.3E0,1.6E1,4.588028E1,2.91E1,-1.9E1,7.63E1,9.06E1,4.82E1,8.3E1,7.92E1,1E-1,4.5E1,7.7422953E0,6.31E1,2.7E1,3.3333334E-1,5.730925E0,7.61E1,7.179518E0,5.977458E1,-7.5E1,-6E0,1E1,-8.7E1,-4.7E1,-3.91E1,3.6E1,3E0,4.99E1,-2.85E1,6E-1,6.407808E1,7E-1,7.179518E0,-9E0,6.29E1,5.079557E-2,5.897467E-2,4.9250443E-2,-3.134608E-2,4.967334E-2,6.15278E-2,4.7472157E-2,5.676197E-2,6.380614E-2,7.124782E-2,5.8135442E-2,-6.870746E-2,6.3133314E-2,6.792418E-2,4.0812526E-2,-6.6948526E-2,5.0135225E-2,4.2721212E-2,2.725287E-2,3.389745E-2,3.1311154E-2,4.0514357E-2,5.7734642E-2,5.2424524E-2,5.045447E-2,8.103911E-3,4.3232154E-2,-4.7820214E-2,6.430536E-2,6.0059283E-2,-7.420413E-2,-1.7184513E-2,-1.4681508E-2,1.7510794E-2,1.4577033E-2,-7.743047E-4,1.3050684E-2,2.260029E-2,-6.250178E-3,-4.3261956E-2,-5.78916E-2,3.0988758E-2,-1.1842357E-3,-7.770826E-2,8.79911E-3,-3.3369843E-2,-1.914354E-2,1.1474865E-2,2.3301521E-2,1.5730023E-2,3.7900276E-2,1.8215904E-2,1.3216978E-2,5.1021308E-2,-4.2797316E-2,-1.926963E-3,6.631649E-2,1.572687E-2,1.864475E-2,-1.78216E-2,2.6017956E-2,-7.455875E-2,7.12971E-3,-2.2258028E-2,4.0595382E-3,-3.1279586E-2,9.036537E-3,-3.1758126E-2,-2.6720764E-2,9.281675E-3,-6.0648825E-2,-2.7829073E-2,-1.7983202E-2,-6.6120266E-3,-1.7651916E-2,-4.3791574E-3,5.9224716E-3,-5.277427E-3,-7.8609005E-2,-5.835449E-2,-1.9747501E-2,-5.1929932E-2,-2.5778057E-2,-1.5069228E-2,-1.8509531E-2,-1.2501215E-3,-7.152627E-2,2.9806588E-2,-5.002037E-2,-6.8827555E-2,-3.4971014E-2,1.8058557E-4,-4.3674868E-2,-7.871684E-2,-2.2478154E-2,-5.0111458E-2,-7.3838E-2,-4.789438E-2,-3.885828E-2,-2.558768E-2,-2.6183615E-2,-5.1185463E-2,-4.1932277E-2,-4.8808835E-2,-1.88817E-2,-4.23168E-2,-4.6309214E-2,-3.6626134E-2,-5.950288E-2,-3.0383496E-2,-6.8512164E-2,-2.6954217E-2,-3.2715917E-2,-4.320477E-2,-2.264754E-2,1.3303859E-2,5.437736E-3,-3.465285E-2,-3.0192306E-2,1.2020316E-2,-1.5103763E-3,-7.245518E-2,-1.53661305E-2,-4.5174114E-2,-5.0718434E-2,6.354213E-2],"split_indices":[2,2,2,2,5,2,3,3,0,2,6,2,6,5,5,3,2,2,1,3,4,3,4,5,3,6,3,1,4,4,1,2,2,6,6,3,3,4,5,5,4,1,1,6,5,0,3,4,5,3,5,6,3,5,3,6,1,3,5,5,5,3,4,3,3,6,6,5,0,5,1,1,2,5,5,4,5,4,4,0,6,3,3,0,1,1,6,4,2,3,1,1,5,2,5,5,1,0,6,0,0,4,1,3,0,5,4,3,0,3,2,5,6,0,6,6,5,1,1,1,5,4,2,4,3,6,0,0,0,0,0,0,0,0,0,0,0,0,0,0,0,0,0,0,0,0,0,0,0,0,0,0,0,0,0,0,0,0,0,0,0,0,0,0,0,0,0,0,0,0,0,0,0,0,0,0,0,0,0,0,0,0,0,0,0,0,0,0,0,0,0,0,0,0,0,0,0,0,0,0,0,0,0,0,0,0,0,0,0,0,0,0,0,0,0,0,0,0,0,0,0,0,0,0,0,0,0,0,0,0,0,0,0,0,0,0,0,0,0,0,0,0,0,0,0,0,0,0,0,0,0,0,0],"split_type":[0,0,0,0,0,0,0,0,0,0,0,0,0,0,0,0,0,0,0,0,0,0,0,0,0,0,0,0,0,0,0,0,0,0,0,0,0,0,0,0,0,0,0,0,0,0,0,0,0,0,0,0,0,0,0,0,0,0,0,0,0,0,0,0,0,0,0,0,0,0,0,0,0,0,0,0,0,0,0,0,0,0,0,0,0,0,0,0,0,0,0,0,0,0,0,0,0,0,0,0,0,0,0,0,0,0,0,0,0,0,0,0,0,0,0,0,0,0,0,0,0,0,0,0,0,0,0,0,0,0,0,0,0,0,0,0,0,0,0,0,0,0,0,0,0,0,0,0,0,0,0,0,0,0,0,0,0,0,0,0,0,0,0,0,0,0,0,0,0,0,0,0,0,0,0,0,0,0,0,0,0,0,0,0,0,0,0,0,0,0,0,0,0,0,0,0,0,0,0,0,0,0,0,0,0,0,0,0,0,0,0,0,0,0,0,0,0,0,0,0,0,0,0,0,0,0,0,0,0,0,0,0,0,0,0,0,0,0,0,0,0,0,0,0,0,0,0,0,0,0,0,0,0],"sum_hessian":[2.0157295E5,8.714821E4,1.14424734E5,6.6897414E4,2.0250799E4,3.589623E4,7.852851E4,3.240279E4,3.449462E4,8.951926E3,1.1298874E4,1.795903E4,1.7937201E4,5.614931E4,2.23792E4,2.2414066E4,9.988723E3,3.1474098E4,3.0205256E3,4.226373E3,4.7255527E3,9.990874E3,1.3079993E3,5.6278228E3,1.2331206E4,1.6204497E4,1.7327042E3,1.2338688E4,4.3810617E4,1.0646782E4,1.1732417E4,6.527656E3,1.5886411E4,8.19561E3,1.7931125E3,1.4693592E4,1.6780506E4,6.168826E2,2.4036428E3,2.6266794E2,3.963705E3,1.0414158E3,3.684137E3,8.449807E3,1.5410681E3,7.9640424E2,5.1159506E2,2.2344019E3,3.3934211E3,4.811181E3,7.520025E3,7.2861914E2,1.5475878E4,3.69805E2,1.3628993E3,2.4904104E3,9.848278E3,3.432346E4,9.487157E3,8.081072E3,2.5657104E3,1.0050423E4,1.6819941E3,2.1110898E3,4.416566E3,9.199352E3,6.68706E3,6.3122124E3,1.8833973E3,4.1354824E1,1.7517577E3,9.657599E3,5.0359937E3,1.0485078E4,6.2954272E3,5.506246E2,6.625808E1,1.8852139E1,2.3847908E3,9.210411E1,1.7056381E2,8.112143E2,3.1524907E3,9.793143E2,6.210153E1,1.4596025E3,2.2245344E3,5.646937E2,7.8851123E3,1.2164373E3,3.2463086E2,7.005442E2,9.586006E1,4.9219473E2,1.9400328E1,8.2349426E2,1.4109075E3,3.0467515E3,3.4666974E2,4.69918E2,4.341263E3,4.2640293E3,3.2559956E3,1.5119966E2,5.774195E2,6.8875825E3,8.588296E3,2.8352003E1,3.41453E2,1.0551447E3,3.0775467E2,7.2417645E2,1.766234E3,8.710204E3,1.1380742E3,2.8824254E4,5.499208E3,5.958322E3,3.5288352E3,3.6030212E2,7.7207695E3,6.439366E2,1.9217738E3,9.71335E3,3.370735E2,1.6692925E3,1.2701624E1,4.1655423E2,1.6945356E3,4.404665E3,1.1900433E1,2.7718576E2,8.922166E3,3.7184705E2,6.315213E3,1.0571533E2,6.206497E3,3.510491E1,6.249912E0,6.280903E2,1.1236675E3,9.652349E3,5.2499256E0,4.0896787E3,9.4631464E2,5.422714E3,5.062364E3,1.9553121E3,4.340115E3,3.162936E2,2.3433095E2,5.395705E1,1.2301028E1,1.735216E1,1.4999788E0,1.3068395E3,1.0779513E3,1.3499809E1,7.86043E1,5.8803375E1,1.11760445E2,2.9417648E2,5.170378E2,1.9826251E3,1.1698657E3,9.4826355E2,3.1050764E1,5.255046E1,9.551067E0,1.4206031E3,3.899945E1,2.188583E3,3.5951294E1,1.5305806E2,4.1163565E2,5.097258E3,2.7878545E3,1.0499216E3,1.6651569E2,2.7507437E2,4.955651E1,1.3385352E2,5.666907E2,2.1903297E1,7.395677E1,4.4794235E2,4.425238E1,4.900532E0,1.4499795E1,1.1270923E2,7.1078503E2,1.3316044E3,7.9303085E1,2.9552979E3,9.1453514E1,2.3671048E2,1.0995927E2,6.030035E1,4.0961765E2,2.0632114E3,2.2780518E3,1.0350063E3,3.229023E3,1.9253549E3,1.3306406E3,7.1998985E1,7.920068E1,2.8166464E2,2.9575485E2,5.237338E3,1.6502445E3,6.660206E3,1.9280898E3,8.749876E0,1.9602127E1,1.850034E2,1.564496E2,8.644305E2,1.9071414E2,2.277558E2,7.999887E1,4.28271E2,2.9590543E2,1.0539911E2,1.6608348E3,2.9583916E3,5.7518125E3,1.6315732E2,9.749169E2,3.5305974E3,2.5293656E4,3.3131757E2,5.16789E3,2.5596082E3,3.3987136E3,2.1845172E2,3.3103835E3,2.9789938E2,6.2402725E1,1.5177073E3,6.2030625E3,5.153752E2,1.285614E2,1.213597E2,1.8004141E3,9.594839E3,1.18510345E2,3.2707364E2,9.999859E0,7.635433E1,1.5929382E3,1.7499753E0,1.0951649E1],"tree_param":{"num_deleted":"0","num_feature":"7","num_nodes":"253","size_leaf_vector":"1"}},{"base_weights":[-5.0885187E-6,1.002718E0,-7.637449E-1,1.2080375E0,3.2473263E-1,-3.1625316E-1,-9.683808E-1,1.4726275E0,9.595702E-1,1.3656926E-1,4.4549832E-1,-1.19035594E-1,-5.1372796E-1,-1.015097E0,-8.0541974E-1,1.3679761E0,1.7073915E0,9.1194576E-1,1.4555854E0,2.9682642E-1,-7.371174E-3,4.9543914E-1,5.1877253E-2,2.694281E-2,-1.8565704E-1,-4.696321E-1,-9.2578286E-1,-1.0803796E0,-8.898266E-1,-8.9976156E-1,-7.0475084E-1,1.2423396E0,1.4195269E0,1.7359422E0,1.5760258E0,1.0441766E0,7.961229E-1,1.3036237E0,1.4940344E0,-2.0122409E-1,3.269696E-1,-2.619125E-1,6.360937E-2,4.4804057E-1,7.5272596E-1,-1.285745E-1,3.2880363E-1,-1.3199264E-1,1.2948957E-1,-2.8885695E-1,-4.317859E-2,-1.0342649E0,-4.429981E-1,-1.3108279E0,-8.204801E-1,-8.631304E-1,-1.1431328E0,-9.715768E-1,-7.364567E-1,-1.2475806E0,-8.567911E-1,-3.525419E-1,-7.5304615E-1,1.3781563E0,1.1771349E0,1.4597813E0,1.3338253E0,1.7089456E0,7.3019214E-2,9.075263E-1,1.5912818E0,9.7818625E-1,1.1705266E0,7.1858495E-1,8.875491E-1,1.3347323E0,1.0291458E0,8.146817E-1,1.499063E0,-6.9558255E-2,-1.3131924E-1,1.1212167E-1,3.8089582E-1,-7.2580986E-2,-4.6368992E-1,-1.13406785E-1,1.7949428E-1,7.8835875E-2,4.746988E-1,8.215887E-1,4.59275E-1,-2.3854737E-1,6.7413324E-1,3.8637936E-1,-1.1827861E0,-4.4607353E-1,5.0336465E-2,1.8562613E-1,-3.6749777E-1,-7.723568E-1,-2.5475037E-1,-1.6436748E-1,1.2208078E-1,-1.6461436E0,-8.716168E-1,-5.572902E-1,-3.5129437E-1,-6.957553E-2,-1.4134449E0,-6.872429E-1,-1.2738496E0,-6.5270615E-1,-9.416151E-1,-1.1827971E0,-1.0559117E0,-1.3866727E0,-9.495863E-1,-6.690936E-1,-1.0592493E0,-1.4081799E0,-5.350028E-1,-7.649602E-1,-1.0941808E0,-8.9716285E-1,-1.302331E-1,-7.8410757E-1,-2.0398384E-1,4.879097E-2,5.665419E-2,4.7301024E-2,-3.019971E-2,5.7201643E-2,6.212845E-2,4.2782485E-2,5.386815E-2,6.0590763E-2,6.84569E-2,5.5908877E-2,-6.642174E-2,6.0658507E-2,6.526888E-2,3.9190605E-2,-6.477477E-2,4.8151724E-2,4.1026425E-2,2.4983265E-2,3.1664897E-2,3.2506056E-2,3.9973274E-2,3.947281E-2,5.3774033E-2,4.8494525E-2,7.8040212E-3,4.1609224E-2,-4.669389E-2,6.1784584E-2,5.7698563E-2,-6.951078E-2,-2.4782142E-3,1.6138198E-2,-2.0282555E-3,1.1770497E-2,2.09802E-2,3.410539E-2,-7.621832E-3,-2.9905916E-3,-2.9117245E-2,-2.529332E-3,-7.459732E-2,8.81061E-3,-2.1869041E-2,-1.74764E-2,1.136439E-2,2.1632025E-2,1.4200119E-2,2.2755332E-2,3.6525507E-2,2.126669E-2,-4.0337257E-2,-3.9816514E-2,-2.2462867E-3,5.7987403E-2,1.5106224E-2,1.861557E-2,-1.815302E-2,2.5155123E-2,-7.188264E-2,-1.4309328E-2,-6.0090937E-2,3.94863E-3,-2.9903678E-2,8.605096E-3,-3.064606E-2,-2.5663665E-2,8.913633E-3,-1.4269041E-2,-3.8214024E-2,-2.8117036E-2,-8.998808E-3,-1.8094582E-2,-2.8864187E-3,9.744463E-3,-3.5356106E-3,-7.564687E-2,-5.610959E-2,-1.8963685E-2,-4.9903605E-2,-2.6507385E-2,-1.7672507E-2,-1.7772064E-2,-1.2001452E-3,-6.90559E-2,2.8675232E-2,-4.8069783E-2,-6.618815E-2,-3.3588678E-2,1.7340166E-4,-4.1962683E-2,-7.574693E-2,-3.7315097E-2,-1.6249783E-2,-4.889204E-2,-3.502218E-2,-4.695787E-2,-6.343048E-2,-4.756121E-2,-3.9750803E-2,-6.2130332E-2,-2.4130244E-2,-2.3391062E-2,-3.9199565E-2,-2.7682912E-2,-1.1257584E-2,-5.761992E-2,-3.912601E-2,-6.383144E-2,-5.0399903E-2,-1.439247E-2,-7.4346885E-2,-3.304523E-2,-1.9229341E-2,-4.9781002E-2,-3.2591958E-2,-1.8362533E-2,-4.8930854E-2,-2.365412E-3,-3.8886897E-2,-3.2159235E-2,8.326572E-4,2.7011314E-2,-1.3921969E-2],"categories":[],"categories_nodes":[],"categories_segments":[],"categories_sizes":[],"default_left":[0,0,0,0,0,0,0,0,0,0,0,0,0,0,0,0,0,0,0,0,0,0,0,0,0,0,0,0,0,0,0,0,0,0,0,0,0,0,0,0,0,0,0,0,0,0,0,0,0,0,0,0,0,0,0,0,0,0,0,0,0,0,0,0,0,0,0,0,0,0,0,0,0,0,0,0,0,0,0,0,0,0,0,0,0,0,0,0,0,0,0,0,0,0,0,0,0,0,0,0,0,0,0,0,0,0,0,0,0,0,0,0,0,0,0,0,0,0,0,0,0,0,0,0,0,0,0,0,0,0,0,0,0,0,0,0,0,0,0,0,0,0,0,0,0,0,0,0,0,0,0,0,0,0,0,0,0,0,0,0,0,0,0,0,0,0,0,0,0,0,0,0,0,0,0,0,0,0,0,0,0,0,0,0,0,0,0,0,0,0,0,0,0,0,0,0,0,0,0,0,0,0,0,0,0,0,0,0,0,0,0,0,0,0,0,0,0,0,0,0,0,0,0,0,0,0,0,0,0,0,0,0,0,0,0,0,0,0,0,0,0,0,0,0,0,0,0,0,0,0,0],"id":1,"left_children":[1,3,5,7,9,11,13,15,17,19,21,23,25,27,29,31,33,35,37,39,41,43,45,47,49,51,53,55,57,59,61,63,65,67,69,71,73,75,77,79,81,83,85,87,89,91,93,95,97,99,101,103,105,107,109,111,113,115,117,119,121,123,125,127,129,131,133,135,-1,137,139,141,143,145,147,149,151,153,155,-1,157,159,161,163,165,167,169,171,173,175,177,179,181,183,185,187,189,191,193,195,197,199,201,203,205,207,209,211,213,215,217,219,221,223,225,227,229,231,233,235,237,239,241,243,245,247,249,-1,-1,-1,-1,-1,-1,-1,-1,-1,-1,-1,-1,-1,-1,-1,-1,-1,-1,-1,-1,-1,-1,-1,-1,-1,-1,-1,-1,-1,-1,-1,-1,-1,-1,-1,-1,-1,-1,-1,-1,-1,-1,-1,-1,-1,-1,-1,-1,-1,-1,-1,-1,-1,-1,-1,-1,-1,-1,-1,-1,-1,-1,-1,-1,-1,-1,-1,-1,-1,-1,-1,-1,-1,-1,-1,-1,-1,-1,-1,-1,-1,-1,-1,-1,-1,-1,-1,-1,-1,-1,-1,-1,-1,-1,-1,-1,-1,-1,-1,-1,-1,-1,-1,-1,-1,-1,-1,-1,-1,-1,-1,-1,-1,-1,-1,-1,-1,-1,-1,-1,-1,-1,-1,-1],"loss_changes":[1.5430519E5,1.2126391E4,1.0473336E4,4.394461E3,4.6011377E2,1.3977717E3,5.966719E2,7.931953E2,8.133262E2,1.826473E2,2.4243335E2,1.7466154E2,3.2542432E2,4.9784766E2,1.654834E2,1.4332031E2,3.469336E1,4.8110938E2,1.5693848E1,5.6312897E1,7.5398834E1,1.331399E2,6.949365E1,9.175386E1,1.8130551E2,2.4319995E2,6.9176636E1,5.4560156E2,2.6135156E2,1.338291E2,1.4374805E2,5.6166016E1,5.282617E1,1.6671875E1,1.683789E1,1.2133887E2,1.1830762E2,3.899292E0,6.9873047E0,2.2821968E1,4.0892456E1,3.4729492E1,6.696195E1,9.0954956E1,3.4000732E1,7.450691E1,4.8203E1,1.2645983E2,9.55311E1,1.1773175E2,1.0378541E2,7.112561E1,1.6199072E2,4.708264E1,8.147131E1,1.4784912E2,1.06359375E2,1.23112305E2,1.5740771E2,1.1257056E2,1.74354E2,1.23719284E2,1.26805176E2,1.104248E1,4.6885742E1,2.7765625E1,1.5868164E1,4.4140625E-1,0E0,5.5600662E1,2.8242188E0,4.1189453E1,2.3029785E1,6.1876465E1,6.3617188E1,5.1831055E-1,1.0037621E1,1.0086229E1,3.9189453E0,0E0,2.2867937E1,3.3715347E1,3.4978333E1,5.153008E1,4.5197006E1,1.13398636E2,5.85258E1,6.616275E1,6.8027954E1,3.1328552E1,3.5132362E1,1.0229857E2,2.2846367E1,3.534414E1,2.3805727E1,7.5137665E1,5.4034996E1,8.650964E1,5.638835E1,3.54617E1,8.901877E1,7.935581E1,5.6104683E1,6.4115295E0,8.581268E1,8.3526855E1,2.566239E2,3.9463375E1,1.5482849E1,1.1133182E2,4.098996E1,1.684762E2,1.2029248E2,7.436328E1,7.932715E1,8.828186E1,1.4304395E2,5.342041E1,3.735669E1,2.043811E1,4.1940857E1,1.004104E2,9.304492E1,4.177191E1,4.3490776E1,1.12723145E2,5.089816E1,0E0,0E0,0E0,0E0,0E0,0E0,0E0,0E0,0E0,0E0,0E0,0E0,0E0,0E0,0E0,0E0,0E0,0E0,0E0,0E0,0E0,0E0,0E0,0E0,0E0,0E0,0E0,0E0,0E0,0E0,0E0,0E0,0E0,0E0,0E0,0E0,0E0,0E0,0E0,0E0,0E0,0E0,0E0,0E0,0E0,0E0,0E0,0E0,0E0,0E0,0E0,0E0,0E0,0E0,0E0,0E0,0E0,0E0,0E0,0E0,0E0,0E0,0E0,0E0,0E0,0E0,0E0,0E0,0E0,0E0,0E0,0E0,0E0,0E0,0E0,0E0,0E0,0E0,0E0,0E0,0E0,0E0,0E0,0E0,0E0,0E0,0E0,0E0,0E0,0E0,0E0,0E0,0E0,0E0,0E0,0E0,0E0,0E0,0E0,0E0,0E0,0E0,0E0,0E0,0E0,0E0,0E0,0E0,0E0,0E0,0E0,0E0,0E0,0E0,0E0,0E0,0E0,0E0,0E0,0E0,0E0,0E0,0E0,0E0],"parents":[2147483647,0,0,1,1,2,2,3,3,4,4,5,5,6,6,7,7,8,8,9,9,10,10,11,11,12,12,13,13,14,14,15,15,16,16,17,17,18,18,19,19,20,20,21,21,22,22,23,23,24,24,25,25,26,26,27,27,28,28,29,29,30,30,31,31,32,32,33,33,34,34,35,35,36,36,37,37,38,38,39,39,40,40,41,41,42,42,43,43,44,44,45,45,46,46,47,47,48,48,49,49,50,50,51,51,52,52,53,53,54,54,55,55,56,56,57,57,58,58,59,59,60,60,61,61,62,62,63,63,64,64,65,65,66,66,67,67,69,69,70,70,71,71,72,72,73,73,74,74,75,75,76,76,77,77,78,78,80,80,81,81,82,82,83,83,84,84,85,85,86,86,87,87,88,88,89,89,90,90,91,91,92,92,93,93,94,94,95,95,96,96,97,97,98,98,99,99,100,100,101,101,102,102,103,103,104,104,105,105,106,106,107,107,108,108,109,109,110,110,111,111,112,112,113,113,114,114,115,115,116,116,117,117,118,118,119,119,120,120,121,121,122,122,123,123,124,124,125,125,126,126],"right_children":[2,4,6,8,10,12,14,16,18,20,22,24,26,28,30,32,34,36,38,40,42,44,46,48,50,52,54,56,58,60,62,64,66,68,70,72,74,76,78,80,82,84,86,88,90,92,94,96,98,100,102,104,106,108,110,112,114,116,118,120,122,124,126,128,130,132,134,136,-1,138,140,142,144,146,148,150,152,154,156,-1,158,160,162,164,166,168,170,172,174,176,178,180,182,184,186,188,190,192,194,196,198,200,202,204,206,208,210,212,214,216,218,220,222,224,226,228,230,232,234,236,238,240,242,244,246,248,250,-1,-1,-1,-1,-1,-1,-1,-1,-1,-1,-1,-1,-1,-1,-1,-1,-1,-1,-1,-1,-1,-1,-1,-1,-1,-1,-1,-1,-1,-1,-1,-1,-1,-1,-1,-1,-1,-1,-1,-1,-1,-1,-1,-1,-1,-1,-1,-1,-1,-1,-1,-1,-1,-1,-1,-1,-1,-1,-1,-1,-1,-1,-1,-1,-1,-1,-1,-1,-1,-1,-1,-1,-1,-1,-1,-1,-1,-1,-1,-1,-1,-1,-1,-1,-1,-1,-1,-1,-1,-1,-1,-1,-1,-1,-1,-1,-1,-1,-1,-1,-1,-1,-1,-1,-1,-1,-1,-1,-1,-1,-1,-1,-1,-1,-1,-1,-1,-1,-1,-1,-1,-1,-1,-1],"split_conditions":[4.763402E1,4.0024994E1,6.3529522E1,2.9347061E1,9.6E0,5.531727E1,4E-1,1.8987623E1,1.2E2,4.3416588E1,5.52E1,5.008992E1,1.97E1,5.5656705E0,5.1408973E0,9.508085E0,1.9849434E1,3.4669872E1,1E0,3.9486966E0,1E-1,1.0254159E1,3.3333334E-1,8.5E0,8.049656E0,-3.1E0,5.879652E0,-5.55E1,1E1,6.5E0,-3.7E1,2.1246176E1,2.6400757E1,9.65E1,0E0,1.268387E1,1.01120405E1,5E-1,4E-1,1.053E2,1E-1,-2.5E0,3.3E1,0E0,4.6E1,1.115E2,8.300025E0,1.1111111E-1,6.08E1,5.8933544E0,1.3E1,-5.7E1,7.032982E0,-3.21E1,7.5726304E0,-4.3E1,4.9E0,-5.4E1,6.43E1,1.1154372E2,6.33E1,3.15E1,7E-1,3.3177812E0,9.3887615E0,7.5E1,-4E-1,-1.16E1,7.3019214E-2,9.1E0,3.82E1,7.41E1,3.324154E1,1.6E1,2.06E1,3.9E0,9.6E1,3.3333334E-1,2.2222222E-1,-6.9558255E-2,-1.4E0,8.752822E0,1.01120405E1,7.4E1,2.58E1,3.03E1,7.76E1,1.1111111E-1,4.5188496E1,1.7E1,4.3829212E1,3.3E0,1.6E1,4.588028E1,2.91E1,6.7E0,7.63E1,9.06E1,4.82E1,3.47E1,-7E-1,1E-1,4.5E1,7.7422953E0,6.31E1,1.32E1,3.3333334E-1,5.730925E0,7.61E1,7.179518E0,5.977458E1,4.1037273E0,2.3E1,7.9E1,4.77291E0,5.4E1,-3.56E1,7.002281E0,6.4899925E1,0E0,5.5E0,-1E-1,4.7399154E0,-7E-1,5.45E1,7.064924E0,6.514599E1,4.879097E-2,5.665419E-2,4.7301024E-2,-3.019971E-2,5.7201643E-2,6.212845E-2,4.2782485E-2,5.386815E-2,6.0590763E-2,6.84569E-2,5.5908877E-2,-6.642174E-2,6.0658507E-2,6.526888E-2,3.9190605E-2,-6.477477E-2,4.8151724E-2,4.1026425E-2,2.4983265E-2,3.1664897E-2,3.2506056E-2,3.9973274E-2,3.947281E-2,5.3774033E-2,4.8494525E-2,7.8040212E-3,4.1609224E-2,-4.669389E-2,6.1784584E-2,5.7698563E-2,-6.951078E-2,-2.4782142E-3,1.6138198E-2,-2.0282555E-3,1.1770497E-2,2.09802E-2,3.410539E-2,-7.621832E-3,-2.9905916E-3,-2.9117245E-2,-2.529332E-3,-7.459732E-2,8.81061E-3,-2.1869041E-2,-1.74764E-2,1.136439E-2,2.1632025E-2,1.4200119E-2,2.2755332E-2,3.6525507E-2,2.126669E-2,-4.0337257E-2,-3.9816514E-2,-2.2462867E-3,5.7987403E-2,1.5106224E-2,1.861557E-2,-1.815302E-2,2.5155123E-2,-7.188264E-2,-1.4309328E-2,-6.0090937E-2,3.94863E-3,-2.9903678E-2,8.605096E-3,-3.064606E-2,-2.5663665E-2,8.913633E-3,-1.4269041E-2,-3.8214024E-2,-2.8117036E-2,-8.998808E-3,-1.8094582E-2,-2.8864187E-3,9.744463E-3,-3.5356106E-3,-7.564687E-2,-5.610959E-2,-1.8963685E-2,-4.9903605E-2,-2.6507385E-2,-1.7672507E-2,-1.7772064E-2,-1.2001452E-3,-6.90559E-2,2.8675232E-2,-4.8069783E-2,-6.618815E-2,-3.3588678E-2,1.7340166E-4,-4.1962683E-2,-7.574693E-2,-3.7315097E-2,-1.6249783E-2,-4.889204E-2,-3.502218E-2,-4.695787E-2,-6.343048E-2,-4.756121E-2,-3.9750803E-2,-6.2130332E-2,-2.4130244E-2,-2.3391062E-2,-3.9199565E-2,-2.7682912E-2,-1.1257584E-2,-5.761992E-2,-3.912601E-2,-6.383144E-2,-5.0399903E-2,-1.439247E-2,-7.4346885E-2,-3.304523E-2,-1.9229341E-2,-4.9781002E-2,-3.2591958E-2,-1.8362533E-2,-4.8930854E-2,-2.365412E-3,-3.8886897E-2,-3.2159235E-2,8.326572E-4,2.7011314E-2,-1.3921969E-2],"split_indices":[2,2,2,2,5,2,4,3,0,2,6,2,6,3,3,3,2,2,1,3,4,3,4,5,3,6,3,5,5,1,5,2,2,6,6,3,3,4,5,0,4,5,1,6,5,0,3,4,5,3,5,6,3,5,3,6,5,5,1,2,1,1,4,3,3,6,6,5,0,5,1,1,2,5,5,5,5,4,4,0,6,3,3,0,1,1,1,4,2,5,2,1,5,2,5,5,1,0,6,6,6,4,1,3,0,5,4,3,0,3,2,3,1,1,3,1,5,3,2,6,1,5,3,6,0,3,2,0,0,0,0,0,0,0,0,0,0,0,0,0,0,0,0,0,0,0,0,0,0,0,0,0,0,0,0,0,0,0,0,0,0,0,0,0,0,0,0,0,0,0,0,0,0,0,0,0,0,0,0,0,0,0,0,0,0,0,0,0,0,0,0,0,0,0,0,0,0,0,0,0,0,0,0,0,0,0,0,0,0,0,0,0,0,0,0,0,0,0,0,0,0,0,0,0,0,0,0,0,0,0,0,0,0,0,0,0,0,0,0,0,0,0,0,0,0,0,0,0,0,0,0],"split_type":[0,0,0,0,0,0,0,0,0,0,0,0,0,0,0,0,0,0,0,0,0,0,0,0,0,0,0,0,0,0,0,0,0,0,0,0,0,0,0,0,0,0,0,0,0,0,0,0,0,0,0,0,0,0,0,0,0,0,0,0,0,0,0,0,0,0,0,0,0,0,0,0,0,0,0,0,0,0,0,0,0,0,0,0,0,0,0,0,0,0,0,0,0,0,0,0,0,0,0,0,0,0,0,0,0,0,0,0,0,0,0,0,0,0,0,0,0,0,0,0,0,0,0,0,0,0,0,0,0,0,0,0,0,0,0,0,0,0,0,0,0,0,0,0,0,0,0,0,0,0,0,0,0,0,0,0,0,0,0,0,0,0,0,0,0,0,0,0,0,0,0,0,0,0,0,0,0,0,0,0,0,0,0,0,0,0,0,0,0,0,0,0,0,0,0,0,0,0,0,0,0,0,0,0,0,0,0,0,0,0,0,0,0,0,0,0,0,0,0,0,0,0,0,0,0,0,0,0,0,0,0,0,0,0,0,0,0,0,0,0,0,0,0,0,0,0,0,0,0,0,0],"sum_hessian":[2.0148828E5,8.7114414E4,1.1437386E5,6.686453E4,2.024988E4,3.5891016E4,7.848284E4,3.237927E4,3.448526E4,7.9168604E3,1.233302E4,1.7958004E4,1.793301E4,6.099277E4,1.7490076E4,2.2400537E4,9.978732E3,3.1466838E4,3.0184216E3,3.7456033E3,4.1712573E3,1.094421E4,1.3888098E3,5.6276045E3,1.23304E4,1.6201368E4,1.731642E3,4.0091906E4,2.0900865E4,9.024672E3,8.465405E3,6.5245083E3,1.5876029E4,8.1871367E3,1.791596E3,1.4688966E4,1.6777873E4,6.165489E2,2.4018728E3,2.1343176E2,3.5321714E3,9.089626E2,3.2622947E3,9.243982E3,1.700228E3,8.411999E2,5.476099E2,2.2068928E3,3.420712E3,7.150283E3,5.180117E3,7.280969E2,1.5473271E4,3.6941345E2,1.3622285E3,8.988563E3,3.1103342E4,1.3630247E4,7.2706177E3,9.892539E2,8.0354175E3,1.02181323E3,7.4435923E3,2.109803E3,4.4147056E3,1.0791298E4,5.0847314E3,6.3059185E3,1.8812186E3,4.1323856E1,1.7502721E3,9.655052E3,5.033914E3,9.083271E3,7.694602E3,5.5031476E2,6.623414E1,1.884572E1,2.383027E3,8.242446E0,2.0518933E2,7.093047E2,2.8228667E3,4.696454E2,4.393172E2,1.2907198E3,1.971575E3,6.227757E2,8.621206E3,1.3756183E3,3.2460977E2,7.404582E2,1.0074169E2,5.2823413E2,1.9375795E1,8.100502E2,1.3968425E3,3.0741067E3,3.4660526E2,4.697268E2,6.680556E3,2.988546E3,2.1915713E3,1.5098265E2,5.7711426E2,6.8860186E3,8.587253E3,2.8336317E1,3.4107715E2,1.0547671E3,3.0746143E2,2.444354E3,6.5442095E3,2.1371812E4,9.731529E3,6.82638E2,1.2947609E4,6.0178374E3,1.2527799E3,8.0650854E2,1.8274533E2,5.797111E3,2.238307E3,2.9531158E2,7.2650165E2,7.0446367E3,3.989555E2,4.16365E2,1.693438E3,4.402809E3,1.1896111E1,8.198042E3,2.593256E3,2.4018715E2,4.8445444E3,8.714475E1,6.2187734E3,3.5082924E1,6.2409325E0,6.276136E2,1.1226586E3,9.649809E3,5.24273E0,4.0878794E3,9.4603467E2,3.975777E3,5.107494E3,4.6124204E3,3.0821816E3,1.7591925E1,5.3272284E2,5.3932938E1,1.2301201E1,1.7346869E1,1.4988526E0,1.3058046E3,1.0772225E3,7.497444E0,1.9769188E2,2.5377342E2,4.5553128E2,1.7626082E3,1.0602587E3,5.2404125E1,4.1724124E2,1.7824664E2,2.6107056E2,1.2557832E3,3.493654E1,1.8674315E3,1.0414334E2,1.7698262E2,4.457931E2,5.551746E3,3.0694602E3,3.677421E2,1.00787616E3,3.099593E2,1.4650481E1,1.4292093E2,5.9753723E2,2.6785131E1,7.3956566E1,4.8323822E2,4.499591E1,4.9001813E0,1.4475614E1,7.487626E2,6.1287624E1,1.317818E3,7.9024475E1,2.9824373E3,9.166956E1,2.3664452E2,1.0996073E2,1.4449257E2,3.2523422E2,4.1483914E2,6.2657173E3,7.2383417E2,2.2647117E3,1.3892367E3,8.023345E2,7.186668E1,7.9115974E1,2.8161633E2,2.9549792E2,3.5977104E3,3.288308E3,6.659173E3,1.9280802E3,8.73635E0,1.9599968E1,1.8485303E2,1.5622412E2,8.6405286E2,1.9071426E2,2.2760992E2,7.985149E1,1.1426422E3,1.3017118E3,1.2434381E3,5.3007715E3,2.0916336E4,4.5547537E2,3.0912893E3,6.64024E3,5.621251E2,1.2051286E2,9.9758826E2,1.19500205E4,5.6803364E3,3.3750125E2,2.1680635E2,1.0359735E3,3.515983E2,4.5491025E2,1.6250871E2,2.0236622E1,4.768863E3,1.0282482E3,1.4529652E3,7.8534155E2,1.2704497E2,1.682666E2,6.709162E2,5.558546E1,6.8748984E3,1.6973836E2,5.5646122E1,3.433094E2],"tree_param":{"num_deleted":"0","num_feature":"7","num_nodes":"251","size_leaf_vector":"1"}},{"base_weights":[-6.0489074E-6,9.6399546E-1,-7.3398453E-1,1.1618083E0,3.1180352E-1,-3.0372593E-1,-9.3094426E-1,1.4173436E0,9.2219025E-1,1.4876126E-1,4.40982E-1,-1.14302516E-1,-4.9347085E-1,-9.84324E-1,-7.970558E-1,1.3161081E0,1.6447245E0,8.7629753E-1,1.4008803E0,2.99045E-1,1.43212825E-2,4.9319345E-1,4.2066537E-2,2.584205E-2,-1.7826203E-1,-4.5105267E-1,-8.9027053E-1,-7.99847E-1,-1.0362978E0,-8.932622E-1,-7.0972514E-1,1.1947755E0,1.3659198E0,1.6723974E0,1.5174748E0,1.0036422E0,7.64813E-1,1.2541659E0,1.4380254E0,2.1780115E-1,4.4813406E-1,-2.2537492E-1,8.210891E-2,4.4918627E-1,7.341785E-1,-1.201628E-1,2.9433557E-1,-1.2525892E-1,1.253303E-1,-2.9864356E-1,-6.527375E-2,-9.94936E-1,-4.2543304E-1,-1.2621878E0,-7.8870815E-1,-6.0091424E-1,-8.7682736E-1,-1.0820985E0,-8.7064517E-1,-9.7252846E-1,-6.435423E-1,-6.614812E-1,-9.976994E-1,1.3259637E0,1.1318309E0,1.4143379E0,1.2991412E0,1.6461962E0,7.037371E-2,8.730593E-1,1.5321879E0,9.400488E-1,1.1254619E0,7.049098E-1,8.7535864E-1,1.2841067E0,9.90141E-1,7.827664E-1,1.4428828E0,2.8934747E-1,1.856846E-2,9.083993E-1,3.9854613E-1,-1.7279185E-1,-1.0397583E0,-7.6622464E-2,1.8623203E-1,7.221604E-2,4.7617307E-1,8.12056E-1,4.4095284E-1,-2.2561717E-1,6.452213E-1,3.528843E-1,-1.1413989E0,-4.2048922E-1,4.715121E-2,1.7982376E-1,-3.5299894E-1,-7.422328E-1,-2.6065722E-1,-1.7068924E-1,9.89349E-2,-1.5869513E0,-8.379393E-1,-1.5233985E0,-4.1608003E-1,-6.8304166E-2,-1.3609971E0,-6.603347E-1,-1.2261944E0,-8.3198464E-1,-4.090206E-1,-1.1412466E0,-8.084695E-1,-1.1037064E0,-8.9986044E-1,-9.465987E-1,-7.422202E-1,-1.422275E0,-9.5140654E-1,-3.4894237E-1,-7.420834E-1,-6.818678E-1,-7.424327E-2,-1.0141604E0,1.0799413E0,4.6922617E-2,5.4514542E-2,4.5480933E-2,-2.9107673E-2,4.552807E-2,5.6911744E-2,5.6275353E-2,5.1033046E-2,6.4428106E-2,6.641998E-2,5.3851426E-2,-6.433646E-2,5.839049E-2,6.28542E-2,4.038508E-2,3.512705E-2,4.6301737E-2,3.9432906E-2,2.532334E-2,3.1307887E-2,2.8887376E-2,3.7790425E-2,5.345648E-2,4.8325304E-2,-4.6529014E-2,4.194214E-2,4.008091E-2,-4.5624703E-2,5.9478715E-2,5.5525184E-2,-4.7522574E-3,1.4023771E-2,-1.257732E-2,6.4466214E-3,4.5286797E-2,-2.2169149E-2,-4.3184243E-2,1.6658E-2,-1.730574E-2,-2.7090814E-3,-5.5033352E-2,3.046441E-2,-1.1183502E-3,-7.256201E-2,-1.8657317E-2,8.539234E-3,-1.7696818E-2,1.0563984E-2,2.1511916E-2,1.4534889E-2,3.5057437E-2,1.6141279E-2,1.1975506E-2,4.823673E-2,-3.959879E-2,-1.7603586E-3,6.17666E-2,1.4511769E-2,1.6279876E-2,-2.9266056E-2,2.4327492E-2,-6.947293E-2,7.414654E-3,-2.0669548E-2,3.7377567E-3,-2.8901702E-2,8.331209E-3,-2.9325046E-2,-2.4656538E-2,8.560539E-3,-5.7307042E-2,-2.5498684E-2,-2.6757887E-2,-9.348751E-3,-1.6885297E-2,-3.6525044E-3,6.628959E-3,-5.333209E-3,-7.300508E-2,-5.403614E-2,-1.8214272E-2,-4.801666E-2,-6.460993E-2,2.7518133E-2,-2.1367613E-2,-1.2982286E-2,-6.681607E-2,2.7597941E-2,-4.624905E-2,-6.379063E-2,-3.227936E-2,1.6650716E-4,-2.2407686E-2,-5.6928027E-2,-4.0948514E-2,-1.369141E-2,-1.1591519E-2,-5.2160066E-2,-6.9505006E-2,-4.41214E-2,-3.140249E-2,-5.9609003E-2,-3.8845953E-2,-4.5156904E-2,-3.3770394E-2,-5.129591E-2,-4.3117642E-2,-3.389785E-2,-5.5577986E-2,-2.7967326E-2,-6.361328E-2,-2.4407715E-2,-3.0130029E-2,-3.999164E-2,-2.0838E-2,1.3553711E-2,5.9185685E-3,-3.2087866E-2,-2.775733E-2,1.1660842E-2,-7.429381E-4,-6.9253415E-2,-3.605408E-2,-4.871451E-2,-4.925815E-2,6.086103E-2],"categories":[],"categories_nodes":[],"categories_segments":[],"categories_sizes":[],"default_left":[0,0,0,0,0,0,0,0,0,0,0,0,0,0,0,0,0,0,0,0,0,0,0,0,0,0,0,0,0,0,0,0,0,0,0,0,0,0,0,0,0,0,0,0,0,0,0,0,0,0,0,0,0,0,0,0,0,0,0,0,0,0,0,0,0,0,0,0,0,0,0,0,0,0,0,0,0,0,0,0,0,0,0,0,0,0,0,0,0,0,0,0,0,0,0,0,0,0,0,0,0,0,0,0,0,0,0,0,0,0,0,0,0,0,0,0,0,0,0,0,0,0,0,0,0,0,0,0,0,0,0,0,0,0,0,0,0,0,0,0,0,0,0,0,0,0,0,0,0,0,0,0,0,0,0,0,0,0,0,0,0,0,0,0,0,0,0,0,0,0,0,0,0,0,0,0,0,0,0,0,0,0,0,0,0,0,0,0,0,0,0,0,0,0,0,0,0,0,0,0,0,0,0,0,0,0,0,0,0,0,0,0,0,0,0,0,0,0,0,0,0,0,0,0,0,0,0,0,0,0,0,0,0,0,0,0,0,0,0,0,0,0,0,0,0,0,0,0,0,0,0,0,0],"id":2,"left_children":[1,3,5,7,9,11,13,15,17,19,21,23,25,27,29,31,33,35,37,39,41,43,45,47,49,51,53,55,57,59,61,63,65,67,69,71,73,75,77,79,81,83,85,87,89,91,93,95,97,99,101,103,105,107,109,111,113,115,117,119,121,123,125,127,129,131,133,135,-1,137,139,141,143,145,147,149,151,153,155,157,159,161,163,165,167,169,171,173,175,177,179,181,183,185,187,189,191,193,195,197,199,201,203,205,207,209,211,213,215,217,219,221,223,225,227,229,231,233,235,237,239,241,243,245,247,249,251,-1,-1,-1,-1,-1,-1,-1,-1,-1,-1,-1,-1,-1,-1,-1,-1,-1,-1,-1,-1,-1,-1,-1,-1,-1,-1,-1,-1,-1,-1,-1,-1,-1,-1,-1,-1,-1,-1,-1,-1,-1,-1,-1,-1,-1,-1,-1,-1,-1,-1,-1,-1,-1,-1,-1,-1,-1,-1,-1,-1,-1,-1,-1,-1,-1,-1,-1,-1,-1,-1,-1,-1,-1,-1,-1,-1,-1,-1,-1,-1,-1,-1,-1,-1,-1,-1,-1,-1,-1,-1,-1,-1,-1,-1,-1,-1,-1,-1,-1,-1,-1,-1,-1,-1,-1,-1,-1,-1,-1,-1,-1,-1,-1,-1,-1,-1,-1,-1,-1,-1,-1,-1,-1,-1,-1,-1],"loss_changes":[1.4239681E5,1.1222922E4,9.682305E3,4.0857656E3,4.2635925E2,1.2895723E3,5.59375E2,7.4133594E2,7.55584E2,1.8085677E2,2.3525024E2,1.6096239E2,3.0130078E2,5.3640625E2,1.8711621E2,1.3346875E2,3.248633E1,4.455664E2,1.4611328E1,5.1098938E1,7.680787E1,1.0559912E2,5.3583626E1,8.461962E1,1.676882E2,2.2524976E2,6.43551E1,1.8815283E2,3.3070703E2,2.0976758E2,1.6214355E2,5.2291016E1,4.938086E1,1.56953125E1,1.5609863E1,1.1260742E2,1.10418945E2,3.600891E0,6.4995117E0,3.9020325E1,3.364331E1,4.4447964E1,6.0915314E1,8.591614E1,3.4827087E1,6.447716E1,4.3474854E1,1.1377777E2,8.853257E1,1.0039227E2,1.1013599E2,6.631836E1,1.582207E2,4.3489075E1,7.566272E1,1.5222327E2,1.5960352E2,1.3383984E2,9.170166E1,7.527051E1,7.4172E1,1.2014453E2,5.853418E1,1.0284912E1,4.3395996E1,1.9796875E1,1.4959961E1,5.175781E-1,0E0,5.1749287E1,2.659668E0,4.063965E1,2.1379883E1,6.0291504E1,6.191797E1,5.720215E-1,9.665596E0,9.502392E0,3.6762695E0,5.039647E1,3.4451824E1,4.7799248E1,3.609204E1,2.6729704E1,3.9193115E1,1.234215E2,3.967788E1,5.59703E1,5.4609497E1,3.1635132E1,3.4891598E1,9.73007E1,2.401007E1,2.923529E1,2.2216986E1,4.8149765E1,5.0372875E1,7.932752E1,5.202821E1,3.3106995E1,6.0337006E1,7.729593E1,3.8615044E1,6.0484314E0,7.9525024E1,2.7573273E1,1.6564478E2,3.673611E1,1.4486633E1,1.0280206E2,3.958072E1,1.4612E2,2.0041583E2,3.9601562E1,1.1149658E2,1.0120703E2,7.622925E1,7.6561035E1,9.7222534E1,4.813391E1,7.314111E1,7.6427704E1,1.0286597E2,1.1415723E2,3.1145893E1,3.720459E1,1.5842909E1,0E0,0E0,0E0,0E0,0E0,0E0,0E0,0E0,0E0,0E0,0E0,0E0,0E0,0E0,0E0,0E0,0E0,0E0,0E0,0E0,0E0,0E0,0E0,0E0,0E0,0E0,0E0,0E0,0E0,0E0,0E0,0E0,0E0,0E0,0E0,0E0,0E0,0E0,0E0,0E0,0E0,0E0,0E0,0E0,0E0,0E0,0E0,0E0,0E0,0E0,0E0,0E0,0E0,0E0,0E0,0E0,0E0,0E0,0E0,0E0,0E0,0E0,0E0,0E0,0E0,0E0,0E0,0E0,0E0,0E0,0E0,0E0,0E0,0E0,0E0,0E0,0E0,0E0,0E0,0E0,0E0,0E0,0E0,0E0,0E0,0E0,0E0,0E0,0E0,0E0,0E0,0E0,0E0,0E0,0E0,0E0,0E0,0E0,0E0,0E0,0E0,0E0,0E0,0E0,0E0,0E0,0E0,0E0,0E0,0E0,0E0,0E0,0E0,0E0,0E0,0E0,0E0,0E0,0E0,0E0,0E0,0E0,0E0,0E0,0E0,0E0],"parents":[2147483647,0,0,1,1,2,2,3,3,4,4,5,5,6,6,7,7,8,8,9,9,10,10,11,11,12,12,13,13,14,14,15,15,16,16,17,17,18,18,19,19,20,20,21,21,22,22,23,23,24,24,25,25,26,26,27,27,28,28,29,29,30,30,31,31,32,32,33,33,34,34,35,35,36,36,37,37,38,38,39,39,40,40,41,41,42,42,43,43,44,44,45,45,46,46,47,47,48,48,49,49,50,50,51,51,52,52,53,53,54,54,55,55,56,56,57,57,58,58,59,59,60,60,61,61,62,62,63,63,64,64,65,65,66,66,67,67,69,69,70,70,71,71,72,72,73,73,74,74,75,75,76,76,77,77,78,78,79,79,80,80,81,81,82,82,83,83,84,84,85,85,86,86,87,87,88,88,89,89,90,90,91,91,92,92,93,93,94,94,95,95,96,96,97,97,98,98,99,99,100,100,101,101,102,102,103,103,104,104,105,105,106,106,107,107,108,108,109,109,110,110,111,111,112,112,113,113,114,114,115,115,116,116,117,117,118,118,119,119,120,120,121,121,122,122,123,123,124,124,125,125,126,126],"right_children":[2,4,6,8,10,12,14,16,18,20,22,24,26,28,30,32,34,36,38,40,42,44,46,48,50,52,54,56,58,60,62,64,66,68,70,72,74,76,78,80,82,84,86,88,90,92,94,96,98,100,102,104,106,108,110,112,114,116,118,120,122,124,126,128,130,132,134,136,-1,138,140,142,144,146,148,150,152,154,156,158,160,162,164,166,168,170,172,174,176,178,180,182,184,186,188,190,192,194,196,198,200,202,204,206,208,210,212,214,216,218,220,222,224,226,228,230,232,234,236,238,240,242,244,246,248,250,252,-1,-1,-1,-1,-1,-1,-1,-1,-1,-1,-1,-1,-1,-1,-1,-1,-1,-1,-1,-1,-1,-1,-1,-1,-1,-1,-1,-1,-1,-1,-1,-1,-1,-1,-1,-1,-1,-1,-1,-1,-1,-1,-1,-1,-1,-1,-1,-1,-1,-1,-1,-1,-1,-1,-1,-1,-1,-1,-1,-1,-1,-1,-1,-1,-1,-1,-1,-1,-1,-1,-1,-1,-1,-1,-1,-1,-1,-1,-1,-1,-1,-1,-1,-1,-1,-1,-1,-1,-1,-1,-1,-1,-1,-1,-1,-1,-1,-1,-1,-1,-1,-1,-1,-1,-1,-1,-1,-1,-1,-1,-1,-1,-1,-1,-1,-1,-1,-1,-1,-1,-1,-1,-1,-1,-1,-1],"split_conditions":[4.763402E1,4.0024994E1,6.3529522E1,2.9347061E1,1.3E1,5.531727E1,5.715096E0,1.8987623E1,1.2E2,4.3416588E1,5.52E1,5.008992E1,1.97E1,-5.55E1,-5E-1,9.508085E0,1.9849434E1,3.4669872E1,1E0,1.01120405E1,1E-1,1.0254159E1,3.3333334E-1,9E0,7.7422953E0,-3.1E0,5.879652E0,-4.3E1,3.3333334E-1,4E-1,6.43E1,2.1246176E1,2.5495098E1,9.65E1,0E0,1.268387E1,1.0874592E1,5E-1,4E-1,8.991113E0,-2.2E1,7.34E1,3.3E1,0E0,4.6E1,1.115E2,8.300025E0,1.1111111E-1,6.08E1,5.8933544E0,1.5E1,-5.7E1,-4.9E1,-3.21E1,7.5726304E0,4.1037273E0,2.3E1,2.1E1,-9E-1,-6.2E1,-2.77E1,7.0907483E0,8E-1,3.3177812E0,9.3887615E0,-7E-1,-3.6E0,1.047E2,7.037371E-2,9.1E0,3.82E1,3.2202484E1,3.324154E1,2.12E1,2.4E0,2.2222222E-1,6.3E0,3.3333334E-1,2.2222222E-1,3.9733927E0,-6.8E0,4.59E1,2.39E1,7.7E1,8E1,3.03E1,-1.4E0,1.1111111E-1,4.5188496E1,1.104094E1,5.2E1,3.3E0,1.6E1,4.661073E1,2.91E1,-1.9E1,7.63E1,9.06E1,4.82E1,8.3E1,-7E-1,1E-1,4.5E1,7.7422953E0,6.31E1,6E-1,7.002281E0,5.730925E0,7.61E1,7.179518E0,5.6659332E1,5.4E1,6.18E1,-6E0,7.59E1,-2.7E1,7.68E1,3.6E1,3E0,4.99E1,-2.85E1,6E-1,6.407808E1,7E-1,7.179518E0,6.0361924E0,6.29E1,4.6922617E-2,5.4514542E-2,4.5480933E-2,-2.9107673E-2,4.552807E-2,5.6911744E-2,5.6275353E-2,5.1033046E-2,6.4428106E-2,6.641998E-2,5.3851426E-2,-6.433646E-2,5.839049E-2,6.28542E-2,4.038508E-2,3.512705E-2,4.6301737E-2,3.9432906E-2,2.532334E-2,3.1307887E-2,2.8887376E-2,3.7790425E-2,5.345648E-2,4.8325304E-2,-4.6529014E-2,4.194214E-2,4.008091E-2,-4.5624703E-2,5.9478715E-2,5.5525184E-2,-4.7522574E-3,1.4023771E-2,-1.257732E-2,6.4466214E-3,4.5286797E-2,-2.2169149E-2,-4.3184243E-2,1.6658E-2,-1.730574E-2,-2.7090814E-3,-5.5033352E-2,3.046441E-2,-1.1183502E-3,-7.256201E-2,-1.8657317E-2,8.539234E-3,-1.7696818E-2,1.0563984E-2,2.1511916E-2,1.4534889E-2,3.5057437E-2,1.6141279E-2,1.1975506E-2,4.823673E-2,-3.959879E-2,-1.7603586E-3,6.17666E-2,1.4511769E-2,1.6279876E-2,-2.9266056E-2,2.4327492E-2,-6.947293E-2,7.414654E-3,-2.0669548E-2,3.7377567E-3,-2.8901702E-2,8.331209E-3,-2.9325046E-2,-2.4656538E-2,8.560539E-3,-5.7307042E-2,-2.5498684E-2,-2.6757887E-2,-9.348751E-3,-1.6885297E-2,-3.6525044E-3,6.628959E-3,-5.333209E-3,-7.300508E-2,-5.403614E-2,-1.8214272E-2,-4.801666E-2,-6.460993E-2,2.7518133E-2,-2.1367613E-2,-1.2982286E-2,-6.681607E-2,2.7597941E-2,-4.624905E-2,-6.379063E-2,-3.227936E-2,1.6650716E-4,-2.2407686E-2,-5.6928027E-2,-4.0948514E-2,-1.369141E-2,-1.1591519E-2,-5.2160066E-2,-6.9505006E-2,-4.41214E-2,-3.140249E-2,-5.9609003E-2,-3.8845953E-2,-4.5156904E-2,-3.3770394E-2,-5.129591E-2,-4.3117642E-2,-3.389785E-2,-5.5577986E-2,-2.7967326E-2,-6.361328E-2,-2.4407715E-2,-3.0130029E-2,-3.999164E-2,-2.0838E-2,1.3553711E-2,5.9185685E-3,-3.2087866E-2,-2.775733E-2,1.1660842E-2,-7.429381E-4,-6.9253415E-2,-3.605408E-2,-4.871451E-2,-4.925815E-2,6.086103E-2],"split_indices":[2,2,2,2,5,2,3,3,0,2,6,2,6,5,5,3,2,2,1,3,4,3,4,5,3,6,3,6,4,4,1,2,2,6,6,3,3,4,5,3,5,1,1,6,5,0,3,4,5,3,5,6,5,5,3,3,1,5,5,5,5,3,4,3,3,6,5,0,0,5,1,2,2,5,5,4,5,4,4,3,5,1,1,0,1,1,6,4,2,3,1,1,5,2,5,5,1,0,6,0,6,4,5,3,0,4,3,3,0,3,2,1,1,6,1,6,1,1,1,1,5,4,2,4,3,3,0,0,0,0,0,0,0,0,0,0,0,0,0,0,0,0,0,0,0,0,0,0,0,0,0,0,0,0,0,0,0,0,0,0,0,0,0,0,0,0,0,0,0,0,0,0,0,0,0,0,0,0,0,0,0,0,0,0,0,0,0,0,0,0,0,0,0,0,0,0,0,0,0,0,0,0,0,0,0,0,0,0,0,0,0,0,0,0,0,0,0,0,0,0,0,0,0,0,0,0,0,0,0,0,0,0,0,0,0,0,0,0,0,0,0,0,0,0,0,0,0,0,0,0,0,0,0],"split_type":[0,0,0,0,0,0,0,0,0,0,0,0,0,0,0,0,0,0,0,0,0,0,0,0,0,0,0,0,0,0,0,0,0,0,0,0,0,0,0,0,0,0,0,0,0,0,0,0,0,0,0,0,0,0,0,0,0,0,0,0,0,0,0,0,0,0,0,0,0,0,0,0,0,0,0,0,0,0,0,0,0,0,0,0,0,0,0,0,0,0,0,0,0,0,0,0,0,0,0,0,0,0,0,0,0,0,0,0,0,0,0,0,0,0,0,0,0,0,0,0,0,0,0,0,0,0,0,0,0,0,0,0,0,0,0,0,0,0,0,0,0,0,0,0,0,0,0,0,0,0,0,0,0,0,0,0,0,0,0,0,0,0,0,0,0,0,0,0,0,0,0,0,0,0,0,0,0,0,0,0,0,0,0,0,0,0,0,0,0,0,0,0,0,0,0,0,0,0,0,0,0,0,0,0,0,0,0,0,0,0,0,0,0,0,0,0,0,0,0,0,0,0,0,0,0,0,0,0,0,0,0,0,0,0,0,0,0,0,0,0,0,0,0,0,0,0,0,0,0,0,0,0,0],"sum_hessian":[2.0124955E5,8.699314E4,1.1425641E5,6.674753E4,2.024561E4,3.5879707E4,7.8376695E4,3.2298535E4,3.4448996E4,8.950682E3,1.1294928E4,1.795587E4,1.792384E4,5.6031344E4,2.2345355E4,2.2353148E4,9.945387E3,3.1437834E4,3.0111614E3,4.2257275E3,4.7249536E3,9.987493E3,1.3074346E3,5.6269663E3,1.2328903E4,1.6194745E4,1.7290941E3,1.231975E4,4.3711594E4,1.0627979E4,1.1717376E4,6.5131895E3,1.583996E4,8.158925E3,1.7864623E3,1.4671314E4,1.676652E4,6.15367E2,2.3957944E3,2.736807E3,1.4889208E3,1.0411469E3,3.683807E3,8.447692E3,1.5398009E3,7.9604016E2,5.1139435E2,2.2339E3,3.3930662E3,5.968364E3,6.3605396E3,7.2683405E2,1.5467911E4,3.6844308E2,1.360651E3,3.439694E3,8.880056E3,3.4239348E4,9.472244E3,8.065066E3,2.5629126E3,1.0038873E4,1.6785028E3,2.1052952E3,4.407894E3,9.170618E3,6.6693413E3,6.2848945E3,1.87403E3,4.1224304E1,1.7452379E3,9.645038E3,5.0262764E3,1.0878812E4,5.887708E3,5.492209E2,6.6146164E1,1.8822588E1,2.376972E3,2.0133438E3,7.23463E2,1.431269E2,1.3457938E3,9.7913806E2,6.2008778E1,1.4593511E3,2.2244558E3,5.64603E2,7.883089E3,1.2152693E3,3.2453174E2,7.0026337E2,9.5776825E1,4.9208167E2,1.9312689E1,8.230659E2,1.4108339E3,3.046607E3,3.4645935E2,4.6931766E2,5.499046E3,3.8737224E3,2.486817E3,1.5043898E2,5.76395E2,1.2928282E2,1.5338628E4,2.8291878E1,3.401512E2,1.0539077E3,3.067433E2,1.5590342E3,1.8806599E3,1.820885E3,7.059171E3,3.060543E4,3.6339185E3,5.9480537E3,3.524191E3,3.5880176E2,7.706264E3,6.435342E2,1.9193784E3,9.701899E3,3.369734E2,1.6658165E3,1.2686239E1,4.1567838E2,1.6896167E3,4.396008E3,1.1886425E1,2.7650656E2,8.894111E3,1.1759045E3,5.493437E3,1.8378645E3,4.4470303E3,3.5005985E1,6.2183185E0,6.2598065E2,1.1192573E3,4.53261E3,5.112428E3,4.0813223E3,9.449542E2,5.6608804E3,5.217931E3,1.8394175E3,4.0482905E3,3.154531E2,2.3376778E2,1.2473906E0,6.489877E1,1.7326485E1,1.4961035E0,1.3022745E3,1.0746974E3,2.625759E2,1.7507678E3,2.1655212E2,5.069109E2,1.2433115E2,1.879576E1,1.5395973E1,1.330398E3,2.8101056E2,6.981275E2,5.245807E1,9.550707E0,1.4205781E3,3.8772957E1,8.850333E1,2.1359526E3,1.5298573E2,4.1161728E2,5.0955454E3,2.7875435E3,1.0488362E3,1.664331E2,2.7502646E2,4.9505257E1,1.3358398E2,5.666794E2,2.1829077E1,7.3947754E1,4.6929123E2,2.2790428E1,4.8982654E0,1.4414424E1,1.1270473E2,7.103612E2,1.3316229E3,7.921097E1,2.9552637E3,9.134315E1,2.3650168E2,1.0995768E2,6.0160866E1,4.091568E2,3.3888818E2,5.1601577E3,9.284216E2,2.945301E3,1.9316477E3,5.551692E2,7.153103E1,7.890796E1,2.8151825E2,2.948768E2,1.2438594E2,4.8968744E0,6.694516E3,8.644111E3,8.702201E0,1.9589676E1,1.8449123E2,1.5565999E2,8.631934E2,1.9071437E2,7.090031E1,2.3584299E2,1.1195966E3,4.3943765E2,1.6607346E3,2.199253E2,1.06965836E2,1.7139192E3,6.826928E3,2.3224284E2,4.897833E3,2.5707598E4,3.1755671E3,4.5835138E2,2.5544404E3,3.393613E3,2.1777753E2,3.3064133E3,2.964867E2,6.2315067E1,1.515634E3,6.1906304E3,5.149847E2,1.2854956E2,1.21339806E2,1.7980386E3,9.583397E3,1.185022E2,3.2699908E2,9.974288E0,1.0755903E3,5.902262E2,1.7479888E0,1.0938251E1],"tree_param":{"num_deleted":"0","num_feature":"7","num_nodes":"253","size_leaf_vector":"1"}},{"base_weights":[-1.4574417E-6,9.27616E-1,-7.057577E-1,1.1186223E0,2.9944056E-1,-2.9173523E-1,-8.955873E-1,1.3944211E0,9.1041625E-1,1.251283E-1,4.113691E-1,-1.0976326E-1,-4.7411618E-1,-9.4712E-1,-7.6641756E-1,1.292292E0,1.5877274E0,8.726375E-1,1.3491496E0,2.730638E-1,-7.7321418E-3,4.5747465E-1,4.796107E-2,2.4797913E-2,-1.7117399E-1,-4.332796E-1,-8.5674757E-1,-7.6911736E-1,-9.973121E-1,-8.5921264E-1,-6.8223614E-1,1.174039E0,1.3387959E0,1.6147095E0,1.4637744E0,1.0678731E0,7.789851E-1,1.207981E0,1.3848516E0,-1.8916225E-1,3.010415E-1,-1.7105335E-1,9.098749E-2,4.1359118E-1,6.9594014E-1,-1.1904274E-1,3.0423903E-1,-1.2186055E-1,1.19408876E-1,-2.6712254E-1,-3.874273E-2,-9.579887E-1,-4.086166E-1,-1.2170823E0,-7.585755E-1,-5.775569E-1,-8.432953E-1,-1.0415952E0,-8.3729416E-1,-9.3568903E-1,-6.185263E-1,-6.3574755E-1,-9.6005625E-1,1.2775103E0,1.1057832E0,1.3157432E0,1.4433681E0,1.580428E0,6.7150965E-2,8.411286E-1,1.4780011E0,9.4900644E-1,1.1428244E0,7.165389E-1,8.8643897E-1,1.2370167E0,9.523399E-1,-4.7548525E-2,1.3866885E0,-1.1867107E0,-8.393559E-2,1.0488402E0,2.865012E-1,-2.2185306E-1,7.035038E-1,1.026086E-1,-7.7134883E-1,7.280449E-2,4.3820447E-1,7.598997E-1,4.2370927E-1,-2.2092906E-1,6.254946E-1,3.5745844E-1,-1.1033947E0,-4.1195333E-1,4.641702E-2,1.7115748E-1,-3.3914453E-1,-7.136945E-1,-2.3568128E-1,-1.5098046E-1,1.1428098E-1,-1.12578E0,-4.3695265E-1,-1.466262E0,-3.996242E-1,-6.711988E-2,-1.3124105E0,-6.34742E-1,-1.1815251E0,-8.000779E-1,-3.9294952E-1,-1.0988488E0,-7.773197E-1,-1.0624691E0,-8.6566657E-1,-9.105433E-1,-7.135181E-1,-1.2725321E0,-9.089851E-1,-3.351756E-1,-7.1338147E-1,-6.5535563E-1,-7.149556E-2,-9.758983E-1,1.0404191E0,4.517442E-2,5.253206E-2,-2.2300007E-2,4.4428363E-2,5.0831985E-2,5.564717E-2,4.4075783E-2,5.863611E-2,6.4209424E-2,6.146754E-2,5.194156E-2,-6.2426116E-2,5.6301005E-2,6.0645845E-2,3.8153753E-2,-1.4755796E-2,2.2520313E-2,4.5963753E-2,3.0928424E-2,2.5182575E-2,3.172468E-2,3.8111746E-2,4.4248197E-2,5.06008E-2,4.520151E-2,5.9676603E-3,3.0105833E-2,5.5655707E-2,4.2207148E-2,-7.2996505E-2,-6.600013E-2,-6.83288E-4,4.476607E-2,-4.8514143E-2,3.5352218E-3,1.3482552E-2,-2.4622034E-3,-1.6755963E-2,-9.545524E-3,5.0249565E-2,-3.8540296E-4,7.133178E-3,-4.158652E-2,3.507E-2,-1.6192937E-2,1.0512115E-2,1.9970212E-2,1.3108211E-2,3.0728675E-2,-6.701607E-2,1.15003E-2,4.6444755E-2,-3.688724E-2,-2.1000074E-3,5.4160696E-2,1.3942157E-2,1.640663E-2,-2.9743161E-2,2.3532892E-2,-6.7292094E-2,-1.309053E-2,-5.707477E-2,3.6414121E-3,-2.7637485E-2,7.934693E-3,-2.8336741E-2,-2.7990745E-2,1.9638601E-3,-1.247836E-2,-3.563319E-2,-2.6125431E-2,-8.318673E-3,-1.6710205E-2,-2.6251217E-3,6.329729E-3,-1.8003859E-2,-2.8901517E-2,-5.494585E-2,-7.158044E-2,-7.11463E-3,-6.220217E-2,2.659213E-2,-2.0432603E-2,-1.239026E-2,-6.4775914E-2,2.6570644E-2,-4.454313E-2,-6.1600566E-2,-3.1036653E-2,1.5987974E-4,-3.8623117E-2,-7.123494E-2,-3.9144106E-2,-1.2469764E-2,-1.11322785E-2,-5.0216395E-2,-6.712906E-2,-4.2473402E-2,-2.9342625E-2,-4.47796E-2,-3.7378646E-2,-4.3473247E-2,-3.248139E-2,-4.9404968E-2,-3.5327017E-2,-5.443681E-2,-5.357313E-2,-2.688065E-2,-5.793786E-2,-1.5914105E-2,-2.198503E-2,-3.8034357E-2,-2.00196E-2,1.3015121E-2,5.683474E-3,-3.0849773E-2,-2.6678486E-2,1.1198795E-2,-7.1332155E-4,-6.702401E-2,-1.176752E-2,-4.0337328E-2,-4.8074458E-2,5.8793645E-2],"categories":[],"categories_nodes":[],"categories_segments":[],"categories_sizes":[],"default_left":[0,0,0,0,0,0,0,0,0,0,0,0,0,0,0,0,0,0,0,0,0,0,0,0,0,0,0,0,0,0,0,0,0,0,0,0,0,0,0,0,0,0,0,0,0,0,0,0,0,0,0,0,0,0,0,0,0,0,0,0,0,0,0,0,0,0,0,0,0,0,0,0,0,0,0,0,0,0,0,0,0,0,0,0,0,0,0,0,0,0,0,0,0,0,0,0,0,0,0,0,0,0,0,0,0,0,0,0,0,0,0,0,0,0,0,0,0,0,0,0,0,0,0,0,0,0,0,0,0,0,0,0,0,0,0,0,0,0,0,0,0,0,0,0,0,0,0,0,0,0,0,0,0,0,0,0,0,0,0,0,0,0,0,0,0,0,0,0,0,0,0,0,0,0,0,0,0,0,0,0,0,0,0,0,0,0,0,0,0,0,0,0,0,0,0,0,0,0,0,0,0,0,0,0,0,0,0,0,0,0,0,0,0,0,0,0,0,0,0,0,0,0,0,0,0,0,0,0,0,0,0,0,0,0,0,0,0,0,0,0,0,0,0,0,0,0,0,0,0,0,0],"id":3,"left_children":[1,3,5,7,9,11,13,15,17,19,21,23,25,27,29,31,33,35,37,39,41,43,45,47,49,51,53,55,57,59,61,63,65,67,69,71,73,75,77,79,81,83,85,87,89,91,93,95,97,99,101,103,105,107,109,111,113,115,117,119,121,123,125,127,129,131,133,135,-1,137,139,141,143,145,147,149,151,-1,153,155,157,159,161,163,165,167,169,171,173,175,177,179,181,183,185,187,189,191,193,195,197,199,201,203,205,207,209,211,213,215,217,219,221,223,225,227,229,231,233,235,237,239,241,243,245,247,249,-1,-1,-1,-1,-1,-1,-1,-1,-1,-1,-1,-1,-1,-1,-1,-1,-1,-1,-1,-1,-1,-1,-1,-1,-1,-1,-1,-1,-1,-1,-1,-1,-1,-1,-1,-1,-1,-1,-1,-1,-1,-1,-1,-1,-1,-1,-1,-1,-1,-1,-1,-1,-1,-1,-1,-1,-1,-1,-1,-1,-1,-1,-1,-1,-1,-1,-1,-1,-1,-1,-1,-1,-1,-1,-1,-1,-1,-1,-1,-1,-1,-1,-1,-1,-1,-1,-1,-1,-1,-1,-1,-1,-1,-1,-1,-1,-1,-1,-1,-1,-1,-1,-1,-1,-1,-1,-1,-1,-1,-1,-1,-1,-1,-1,-1,-1,-1,-1,-1,-1,-1,-1,-1,-1],"loss_changes":[1.3150864E5,1.041393E4,8.9658125E3,3.8206719E3,3.948286E2,1.190229E3,5.199258E2,5.6315625E2,6.2749414E2,1.5558176E2,2.0648071E2,1.4836473E2,2.7950806E2,4.9872266E2,1.7370215E2,1.0147461E2,3.0722656E1,6.3774414E2,1.3473633E1,4.8491943E1,6.726886E1,1.1416455E2,5.947224E1,7.809112E1,1.5663354E2,2.0907715E2,6.0143555E1,1.7430957E2,3.081328E2,1.9469629E2,1.5054541E2,3.599756E1,3.0503906E1,1.5167969E1,1.4516846E1,9.976172E1,1.577666E2,3.3828735E0,1.2955566E1,2.2403046E1,3.8103485E1,6.998695E1,2.6139141E1,7.746887E1,2.9250122E1,6.3974426E1,4.1461285E1,1.0775786E2,8.1234406E1,1.0020053E2,8.89908E1,6.2972046E1,1.4646631E2,4.0249573E1,7.04447E1,1.4087256E2,1.4861914E2,1.2449219E2,8.509277E1,7.1242676E1,6.85943E1,1.1091089E2,5.4120728E1,9.64624E0,2.682959E1,3.561133E1,1.698877E1,3.2871094E0,0E0,4.8238243E1,2.5388184E0,2.8295654E1,2.4570312E1,7.3129395E1,5.29458E1,6.0961914E-1,9.395905E0,0E0,6.0825195E0,3.1084171E1,2.0387232E1,1.2010429E1,3.4690735E1,4.6919792E1,4.5359516E1,2.1817123E1,1.6254389E1,5.6695236E1,5.796753E1,2.9117737E1,3.234588E1,8.7467606E1,2.0017979E1,3.1002861E1,2.078773E1,6.91853E1,4.604592E1,7.372689E1,4.8651382E1,3.314595E1,7.71449E1,6.8029274E1,5.4470184E1,5.382599E1,6.22199E1,2.5628235E1,1.5305298E2,3.425178E1,1.3660095E1,9.5012146E1,3.7974884E1,1.3547589E2,1.8558224E2,3.7177246E1,1.0472217E2,9.4171875E1,7.08772E1,7.19834E1,9.0536255E1,9.000897E1,1.1175098E2,7.0508766E1,9.504169E1,1.0540039E2,2.9058697E1,3.6588623E1,1.49097395E1,0E0,0E0,0E0,0E0,0E0,0E0,0E0,0E0,0E0,0E0,0E0,0E0,0E0,0E0,0E0,0E0,0E0,0E0,0E0,0E0,0E0,0E0,0E0,0E0,0E0,0E0,0E0,0E0,0E0,0E0,0E0,0E0,0E0,0E0,0E0,0E0,0E0,0E0,0E0,0E0,0E0,0E0,0E0,0E0,0E0,0E0,0E0,0E0,0E0,0E0,0E0,0E0,0E0,0E0,0E0,0E0,0E0,0E0,0E0,0E0,0E0,0E0,0E0,0E0,0E0,0E0,0E0,0E0,0E0,0E0,0E0,0E0,0E0,0E0,0E0,0E0,0E0,0E0,0E0,0E0,0E0,0E0,0E0,0E0,0E0,0E0,0E0,0E0,0E0,0E0,0E0,0E0,0E0,0E0,0E0,0E0,0E0,0E0,0E0,0E0,0E0,0E0,0E0,0E0,0E0,0E0,0E0,0E0,0E0,0E0,0E0,0E0,0E0,0E0,0E0,0E0,0E0,0E0,0E0,0E0,0E0,0E0,0E0,0E0],"parents":[2147483647,0,0,1,1,2,2,3,3,4,4,5,5,6,6,7,7,8,8,9,9,10,10,11,11,12,12,13,13,14,14,15,15,16,16,17,17,18,18,19,19,20,20,21,21,22,22,23,23,24,24,25,25,26,26,27,27,28,28,29,29,30,30,31,31,32,32,33,33,34,34,35,35,36,36,37,37,38,38,39,39,40,40,41,41,42,42,43,43,44,44,45,45,46,46,47,47,48,48,49,49,50,50,51,51,52,52,53,53,54,54,55,55,56,56,57,57,58,58,59,59,60,60,61,61,62,62,63,63,64,64,65,65,66,66,67,67,69,69,70,70,71,71,72,72,73,73,74,74,75,75,76,76,78,78,79,79,80,80,81,81,82,82,83,83,84,84,85,85,86,86,87,87,88,88,89,89,90,90,91,91,92,92,93,93,94,94,95,95,96,96,97,97,98,98,99,99,100,100,101,101,102,102,103,103,104,104,105,105,106,106,107,107,108,108,109,109,110,110,111,111,112,112,113,113,114,114,115,115,116,116,117,117,118,118,119,119,120,120,121,121,122,122,123,123,124,124,125,125,126,126],"right_children":[2,4,6,8,10,12,14,16,18,20,22,24,26,28,30,32,34,36,38,40,42,44,46,48,50,52,54,56,58,60,62,64,66,68,70,72,74,76,78,80,82,84,86,88,90,92,94,96,98,100,102,104,106,108,110,112,114,116,118,120,122,124,126,128,130,132,134,136,-1,138,140,142,144,146,148,150,152,-1,154,156,158,160,162,164,166,168,170,172,174,176,178,180,182,184,186,188,190,192,194,196,198,200,202,204,206,208,210,212,214,216,218,220,222,224,226,228,230,232,234,236,238,240,242,244,246,248,250,-1,-1,-1,-1,-1,-1,-1,-1,-1,-1,-1,-1,-1,-1,-1,-1,-1,-1,-1,-1,-1,-1,-1,-1,-1,-1,-1,-1,-1,-1,-1,-1,-1,-1,-1,-1,-1,-1,-1,-1,-1,-1,-1,-1,-1,-1,-1,-1,-1,-1,-1,-1,-1,-1,-1,-1,-1,-1,-1,-1,-1,-1,-1,-1,-1,-1,-1,-1,-1,-1,-1,-1,-1,-1,-1,-1,-1,-1,-1,-1,-1,-1,-1,-1,-1,-1,-1,-1,-1,-1,-1,-1,-1,-1,-1,-1,-1,-1,-1,-1,-1,-1,-1,-1,-1,-1,-1,-1,-1,-1,-1,-1,-1,-1,-1,-1,-1,-1,-1,-1,-1,-1,-1,-1],"split_conditions":[4.763402E1,4.0024994E1,6.3529522E1,2.8E1,9.6E0,5.531727E1,5.715096E0,1.8987623E1,1.2E2,4.3416588E1,5.52E1,5.008992E1,1.97E1,-5.55E1,-5E-1,9.508085E0,1.9849434E1,3.2202484E1,1E0,3.9486966E0,1.1111111E-1,1.0254159E1,3.3333334E-1,8.5E0,8.049656E0,-3.1E0,5.879652E0,-4.3E1,3.3333334E-1,4E-1,6.43E1,2.1246176E1,8E1,8.52E1,0E0,1.05488615E1,1.104094E1,5E-1,2.8653097E1,-5.3E0,2E0,1.0254159E1,7E-1,0E0,4.6E1,1.115E2,8.300025E0,1.1111111E-1,6.08E1,5.8933544E0,1.3E1,3.3333334E-1,-4.9E1,-3.21E1,7.5726304E0,4.1037273E0,2.3E1,2.1E1,-9E-1,-5.4E1,-2.77E1,7.0907483E0,8E-1,3.3177812E0,1.053E2,3.29E1,1.05488615E1,1.6155495E1,6.7150965E-2,9.1E0,3.82E1,7.2E1,-3.1E0,3.748333E1,8E0,1.3E1,9.6E1,-4.7548525E-2,4E-1,4.036087E1,1.053E2,7.6E0,1E-1,-2.5E0,1E-1,3.3E1,4.7318707E1,1.1111111E-1,4.5188496E1,8.34E1,5.2E1,3.3E0,1.6E1,4.661073E1,2.91E1,6.7E0,7.63E1,9.06E1,2.12E1,3.47E1,-7E-1,1E-1,5.474486E1,3.93E1,6.425853E0,6E-1,7.032982E0,5.730925E0,7.61E1,7.179518E0,5.977458E1,5.6E1,6.18E1,-6E0,6.86E1,-2.7E1,7.68E1,7.7E1,3E0,5.4E1,-3.56E1,6E-1,6.407808E1,7E-1,7.179518E0,-9E0,6.29E1,4.517442E-2,5.253206E-2,-2.2300007E-2,4.4428363E-2,5.0831985E-2,5.564717E-2,4.4075783E-2,5.863611E-2,6.4209424E-2,6.146754E-2,5.194156E-2,-6.2426116E-2,5.6301005E-2,6.0645845E-2,3.8153753E-2,-1.4755796E-2,2.2520313E-2,4.5963753E-2,3.0928424E-2,2.5182575E-2,3.172468E-2,3.8111746E-2,4.4248197E-2,5.06008E-2,4.520151E-2,5.9676603E-3,3.0105833E-2,5.5655707E-2,4.2207148E-2,-7.2996505E-2,-6.600013E-2,-6.83288E-4,4.476607E-2,-4.8514143E-2,3.5352218E-3,1.3482552E-2,-2.4622034E-3,-1.6755963E-2,-9.545524E-3,5.0249565E-2,-3.8540296E-4,7.133178E-3,-4.158652E-2,3.507E-2,-1.6192937E-2,1.0512115E-2,1.9970212E-2,1.3108211E-2,3.0728675E-2,-6.701607E-2,1.15003E-2,4.6444755E-2,-3.688724E-2,-2.1000074E-3,5.4160696E-2,1.3942157E-2,1.640663E-2,-2.9743161E-2,2.3532892E-2,-6.7292094E-2,-1.309053E-2,-5.707477E-2,3.6414121E-3,-2.7637485E-2,7.934693E-3,-2.8336741E-2,-2.7990745E-2,1.9638601E-3,-1.247836E-2,-3.563319E-2,-2.6125431E-2,-8.318673E-3,-1.6710205E-2,-2.6251217E-3,6.329729E-3,-1.8003859E-2,-2.8901517E-2,-5.494585E-2,-7.158044E-2,-7.11463E-3,-6.220217E-2,2.659213E-2,-2.0432603E-2,-1.239026E-2,-6.4775914E-2,2.6570644E-2,-4.454313E-2,-6.1600566E-2,-3.1036653E-2,1.5987974E-4,-3.8623117E-2,-7.123494E-2,-3.9144106E-2,-1.2469764E-2,-1.11322785E-2,-5.0216395E-2,-6.712906E-2,-4.2473402E-2,-2.9342625E-2,-4.47796E-2,-3.7378646E-2,-4.3473247E-2,-3.248139E-2,-4.9404968E-2,-3.5327017E-2,-5.443681E-2,-5.357313E-2,-2.688065E-2,-5.793786E-2,-1.5914105E-2,-2.198503E-2,-3.8034357E-2,-2.00196E-2,1.3015121E-2,5.683474E-3,-3.0849773E-2,-2.6678486E-2,1.1198795E-2,-7.1332155E-4,-6.702401E-2,-1.176752E-2,-4.0337328E-2,-4.8074458E-2,5.8793645E-2],"split_indices":[2,2,2,2,5,2,3,3,0,2,6,2,6,5,5,3,2,2,1,3,4,3,4,5,3,6,3,6,4,4,1,2,6,6,6,3,3,4,2,5,1,3,4,6,5,0,3,4,5,3,5,4,5,5,3,3,1,5,5,5,5,3,4,3,0,5,3,2,0,5,1,1,6,2,5,5,5,0,5,2,0,5,4,5,4,1,2,4,2,0,1,1,5,2,5,5,1,0,6,6,6,4,2,1,3,4,3,3,0,3,2,1,1,6,1,6,1,1,1,1,5,4,2,4,3,6,0,0,0,0,0,0,0,0,0,0,0,0,0,0,0,0,0,0,0,0,0,0,0,0,0,0,0,0,0,0,0,0,0,0,0,0,0,0,0,0,0,0,0,0,0,0,0,0,0,0,0,0,0,0,0,0,0,0,0,0,0,0,0,0,0,0,0,0,0,0,0,0,0,0,0,0,0,0,0,0,0,0,0,0,0,0,0,0,0,0,0,0,0,0,0,0,0,0,0,0,0,0,0,0,0,0,0,0,0,0,0,0,0,0,0,0,0,0,0,0,0,0,0,0,0],"split_type":[0,0,0,0,0,0,0,0,0,0,0,0,0,0,0,0,0,0,0,0,0,0,0,0,0,0,0,0,0,0,0,0,0,0,0,0,0,0,0,0,0,0,0,0,0,0,0,0,0,0,0,0,0,0,0,0,0,0,0,0,0,0,0,0,0,0,0,0,0,0,0,0,0,0,0,0,0,0,0,0,0,0,0,0,0,0,0,0,0,0,0,0,0,0,0,0,0,0,0,0,0,0,0,0,0,0,0,0,0,0,0,0,0,0,0,0,0,0,0,0,0,0,0,0,0,0,0,0,0,0,0,0,0,0,0,0,0,0,0,0,0,0,0,0,0,0,0,0,0,0,0,0,0,0,0,0,0,0,0,0,0,0,0,0,0,0,0,0,0,0,0,0,0,0,0,0,0,0,0,0,0,0,0,0,0,0,0,0,0,0,0,0,0,0,0,0,0,0,0,0,0,0,0,0,0,0,0,0,0,0,0,0,0,0,0,0,0,0,0,0,0,0,0,0,0,0,0,0,0,0,0,0,0,0,0,0,0,0,0,0,0,0,0,0,0,0,0,0,0,0,0],"sum_hessian":[2.0087522E5,8.679502E4,1.1408019E5,6.655667E4,2.023835E4,3.586356E4,7.8216625E4,2.862846E4,3.7928215E4,7.9146143E3,1.2323735E4,1.7952709E4,1.791085E4,5.5906316E4,2.2310312E4,1.8736906E4,9.891553E3,3.492395E4,3.0042646E3,3.7443523E3,4.170262E3,1.0936023E4,1.3877119E3,5.625938E3,1.2326771E4,1.6185567E4,1.7252821E3,1.2300363E4,4.3605953E4,1.0607842E4,1.170247E4,5.2960435E3,1.3440863E4,8.1134E3,1.7781528E3,1.1318359E4,2.3605592E4,6.1345355E2,2.390811E3,2.133749E2,3.5309773E3,1.5708025E3,2.5994595E3,9.238626E3,1.6973973E3,8.40521E2,5.471909E2,2.2060325E3,3.4199058E3,7.1473716E3,5.1794E3,7.249207E2,1.5460647E4,3.6696423E2,1.3583179E3,3.4359607E3,8.864402E3,3.4149867E4,9.456085E3,8.0478164E3,2.5600254E3,1.0027777E4,1.6746929E3,2.0979578E3,3.1980857E3,1.1024194E4,2.416669E3,5.301951E3,2.8114492E3,4.1064148E1,1.7370886E3,4.3821987E3,6.93616E3,1.4934288E4,8.671303E3,5.474367E2,6.601685E1,1.2443618E0,2.3895667E3,1.9379513E1,1.9399538E2,6.599063E1,3.4649868E3,1.4852748E3,8.552767E1,2.5657637E3,3.369601E1,6.225786E2,8.616048E3,1.3730205E3,3.243769E2,7.399638E2,1.00557175E2,5.279754E2,1.9215485E1,8.0935016E2,1.3966824E3,3.0736638E3,3.462419E2,4.686901E2,6.6786816E3,2.987894E3,2.191506E3,5.474595E2,1.774612E2,1.2897641E2,1.5331671E4,2.8221924E1,3.387423E2,1.0526252E3,3.056926E2,1.5564825E3,1.8794781E3,1.8157007E3,7.048702E3,3.0523264E4,3.6266047E3,5.936551E3,3.5195347E3,5.877177E2,7.4600986E3,6.43199E2,1.9168264E3,9.690854E3,3.3692377E2,1.6620431E3,1.2649811E1,4.1455444E2,1.6834034E3,9.1119585E0,3.1889739E3,6.9195063E3,4.104688E3,1.5269861E2,2.2639705E3,3.3603625E3,1.9415883E3,3.4880608E1,6.1835403E0,6.233324E2,1.1137562E3,4.3664478E3,1.5750974E1,7.5167885E1,6.860992E3,9.037596E3,5.8966924E3,3.6088015E3,5.062502E3,1.0366939E2,4.437673E2,5.3723442E1,1.2293411E1,1.878459E1,2.3707822E3,4.1495433E0,1.5229969E1,6.9728417E0,1.8702254E2,6.4490906E1,1.4997221E0,7.050644E2,2.7599224E3,8.197313E2,6.655435E2,3.1834229E1,5.3693443E1,1.0339604E3,1.5318031E3,2.9295767E1,4.400243E0,1.768566E2,4.45722E2,5.5475215E3,3.0685264E3,1.3690294E3,3.9910557E0,2.749776E2,4.9399303E1,1.424402E2,5.975236E2,2.6625828E1,7.393135E1,5.0445438E2,2.3521046E1,4.8949413E0,1.4320542E1,7.482358E2,6.1114365E1,1.317816E3,7.886627E1,2.9821838E3,9.147996E1,1.7908937E2,1.6715256E2,1.4426477E2,3.2442532E2,4.143833E2,6.2642983E3,7.2329443E2,2.2645996E3,2.0338024E3,1.5770374E2,2.0989928E2,3.375602E2,2.7578924E1,1.4988226E2,1.2407694E2,4.8994627E0,6.850746E3,8.480925E3,8.649744E0,1.957218E1,1.8394363E2,1.5479868E2,8.6191077E2,1.9071451E2,2.2664333E2,7.904926E1,1.1390613E3,4.1742126E2,1.6601283E3,2.1934984E2,1.06368576E2,1.709332E3,6.2523438E3,7.9635815E2,4.8867515E3,2.5636512E4,3.1696802E3,4.5692453E2,5.5992637E3,3.3728696E2,2.1694386E2,3.3025908E3,4.8876242E2,9.895526E1,7.8003186E2,6.680067E3,5.146433E2,1.2855565E2,1.2134579E2,1.7954806E3,9.572356E3,1.18497086E2,3.269958E2,9.927958E0,7.616574E1,1.5858773E3,1.7440819E0,1.0905729E1],"tree_param":{"num_deleted":"0","num_feature":"7","num_nodes":"251","size_leaf_vector":"1"}},{"base_weights":[5.575362E-6,8.9331496E-1,-6.789381E-1,1.2562844E0,5.845676E-1,-2.8025705E-1,-8.6211485E-1,1.1646595E0,1.5356051E0,8.109845E-1,2.8759736E-1,-1.0541292E-1,-4.5561704E-1,-9.046275E-1,-7.141096E-1,1.2466817E0,1.0292557E0,1.5620513E0,1.4142712E0,7.491664E-1,1.3017174E0,1.3640231E-1,4.0748674E-1,2.3784146E-2,-1.6437465E-1,-4.1627067E-1,-8.250866E-1,-9.510759E-1,-7.5725865E-1,-6.680874E-1,-9.00431E-1,1.1316396E0,1.2919763E0,9.1582036E-1,1.1012261E0,1.5367137E0,6.5851636E-2,8.1141925E-1,1.4280596E0,7.1281224E-1,9.214637E-1,1.1648782E0,1.3367033E0,2.752494E-1,1.2227058E-2,4.5575982E-1,3.8666356E-2,-1.1565648E-1,1.15576886E-1,-3.005038E-1,-7.731356E-2,-9.22872E-1,-3.9251938E-1,-1.1750705E0,-7.300215E-1,-7.741206E-1,-9.924706E-1,-8.864489E-1,-6.455578E-1,-8.5364217E-1,-5.6522334E-1,-1.133895E0,-7.724776E-1,1.232333E0,1.0653002E0,1.2695426E0,1.393822E0,9.206549E-1,-3.8242576E-1,5.416755E-1,1.1072888E0,1.3641418E0,1.5394344E0,1.25403E0,-6.066924E-2,1.3591655E0,1.4653906E0,3.968719E-1,7.2487384E-1,8.5196036E-1,9.908333E-1,1.1930026E0,9.1764593E-1,7.252364E-1,1.341299E0,1.978124E-1,4.1740972E-1,-2.1022226E-1,7.512057E-2,4.150328E-1,6.7915386E-1,-1.105561E-1,2.707118E-1,-3.8816568E-1,4.3325067E-2,1.6581576E-1,-3.258923E-1,-2.4423076E-1,-6.099057E-1,-4.4618234E-1,-4.830528E-2,-1.4885793E0,-7.739912E-1,-4.4389662E-1,-2.1062377E-1,-6.601395E-2,-1.2671986E0,-6.103626E-1,-1.1399504E0,-5.663244E-1,-8.504205E-1,-1.0275663E0,-8.7169766E-1,-1.4439578E0,-8.6867595E-1,-5.8956295E-1,-8.8130265E-1,-9.091804E-1,-6.0470223E-1,-5.889748E-1,-1.1709773E-1,-1.2155393E0,-5.115408E-1,-9.155054E-1,-6.372427E-1,5.8251116E-2,4.8358507E-2,-2.147605E-2,4.2802647E-2,4.9037125E-2,5.371146E-2,4.2506777E-2,5.662845E-2,-5.5133604E-2,3.6875334E-2,-7.378068E-2,3.27634E-2,3.657061E-2,-7.818572E-2,4.1072506E-2,4.5711968E-2,4.9759187E-2,6.3941404E-2,6.2226385E-2,6.0517173E-2,6.0195707E-2,3.0928824E-2,2.8214587E-2,5.531197E-2,5.7654537E-2,6.2077448E-2,-6.321361E-4,2.1722807E-2,3.055439E-2,2.5942938E-2,4.3625135E-2,3.2398935E-2,3.984027E-2,4.1555017E-3,4.9767382E-2,4.4757802E-2,-4.6497982E-2,3.8997527E-2,3.7571017E-2,-4.5275874E-2,1.3909265E-2,5.3732604E-2,1.06687825E-2,2.4004914E-4,3.445098E-2,1.4785559E-2,-6.5701436E-3,-4.312271E-2,-2.933841E-3,6.900177E-3,2.6429417E-3,1.7601054E-2,3.0060252E-2,1.6289104E-2,-8.326337E-3,2.3962224E-2,1.2990294E-2,-4.2733625E-2,-5.4930532E-3,-2.4114467E-2,3.441366E-3,-2.6747568E-2,7.6819756E-3,-2.7122688E-2,-2.2893654E-2,8.144048E-3,-1.541519E-2,-4.5545194E-3,-3.495092E-2,-1.7599719E-2,1.5118697E-2,-2.6163997E-2,-1.7395589E-3,-7.5255826E-2,-6.900278E-2,-5.0243963E-2,-5.8624584E-2,-2.3481088E-2,-2.3399932E-2,-1.3546763E-2,-2.116063E-2,6.91823E-4,-6.290976E-2,2.5589747E-2,-4.698923E-2,-7.022266E-2,-2.9854957E-2,1.535187E-4,-2.007904E-2,-5.319383E-2,-3.558273E-2,-1.57513E-2,-4.7742493E-2,-3.2095037E-2,-4.0739946E-2,-5.406419E-2,-3.854029E-2,-3.0999618E-2,-6.199114E-2,-2.2900803E-2,-2.7051842E-2,-3.68981E-2,-2.4443762E-2,-3.7132732E-3,-5.8196176E-2,-3.2707416E-2,-3.8540933E-2,-2.051273E-2,-1.8984389E-2,-4.1612912E-2,-2.8136393E-2,-2.0276506E-2,-4.5143228E-2,5.712972E-3,-3.624666E-2,-5.4433692E-2,-1.0888123E-2,-7.093717E-2,-3.784566E-2,2.635743E-2,-1.5856585E-2,-3.4408826E-2],"categories":[],"categories_nodes":[],"categories_segments":[],"categories_sizes":[],"default_left":[0,0,0,0,0,0,0,0,0,0,0,0,0,0,0,0,0,0,0,0,0,0,0,0,0,0,0,0,0,0,0,0,0,0,0,0,0,0,0,0,0,0,0,0,0,0,0,0,0,0,0,0,0,0,0,0,0,0,0,0,0,0,0,0,0,0,0,0,0,0,0,0,0,0,0,0,0,0,0,0,0,0,0,0,0,0,0,0,0,0,0,0,0,0,0,0,0,0,0,0,0,0,0,0,0,0,0,0,0,0,0,0,0,0,0,0,0,0,0,0,0,0,0,0,0,0,0,0,0,0,0,0,0,0,0,0,0,0,0,0,0,0,0,0,0,0,0,0,0,0,0,0,0,0,0,0,0,0,0,0,0,0,0,0,0,0,0,0,0,0,0,0,0,0,0,0,0,0,0,0,0,0,0,0,0,0,0,0,0,0,0,0,0,0,0,0,0,0,0,0,0,0,0,0,0,0,0,0,0,0,0,0,0,0,0,0,0,0,0,0,0,0,0,0,0,0,0,0,0,0,0,0,0,0,0,0,0,0,0,0,0,0,0,0,0,0,0],"id":4,"left_children":[1,3,5,7,9,11,13,15,17,19,21,23,25,27,29,31,33,35,37,39,41,43,45,47,49,51,53,55,57,59,61,63,65,67,69,71,-1,73,75,77,79,81,83,85,87,89,91,93,95,97,99,101,103,105,107,109,111,113,115,117,119,121,123,125,127,129,131,133,135,137,139,141,143,145,-1,147,149,151,153,155,157,159,161,163,165,167,169,171,173,175,177,179,181,183,185,187,189,191,193,195,197,199,201,203,205,207,209,211,213,215,217,219,221,223,225,227,229,231,233,235,237,239,241,243,245,-1,-1,-1,-1,-1,-1,-1,-1,-1,-1,-1,-1,-1,-1,-1,-1,-1,-1,-1,-1,-1,-1,-1,-1,-1,-1,-1,-1,-1,-1,-1,-1,-1,-1,-1,-1,-1,-1,-1,-1,-1,-1,-1,-1,-1,-1,-1,-1,-1,-1,-1,-1,-1,-1,-1,-1,-1,-1,-1,-1,-1,-1,-1,-1,-1,-1,-1,-1,-1,-1,-1,-1,-1,-1,-1,-1,-1,-1,-1,-1,-1,-1,-1,-1,-1,-1,-1,-1,-1,-1,-1,-1,-1,-1,-1,-1,-1,-1,-1,-1,-1,-1,-1,-1,-1,-1,-1,-1,-1,-1,-1,-1,-1,-1,-1,-1,-1,-1,-1,-1,-1,-1],"loss_changes":[1.2153461E5,9.696531E3,8.314328E3,1.01609766E3,3.1438828E3,1.0989495E3,4.901953E2,3.31375E2,2.9304688E1,8.0388086E2,3.6664697E2,1.367386E2,2.598047E2,4.1408594E2,1.4870605E2,9.5708984E1,9.128613E1,1.4660156E1,1.3537842E1,1.4694922E2,1.2647461E1,1.5427917E2,2.0085901E2,7.2019035E1,1.4604767E2,1.9426147E2,5.641223E1,3.3670703E2,2.0906934E2,2.661045E2,1.02066895E2,3.393213E1,2.8785156E1,2.7932617E1,2.2847656E1,8.1347656E-1,0E0,4.5027622E1,2.4506836E0,7.388379E1,1.8935791E1,3.159729E0,5.647949E0,4.6423492E1,6.611894E1,9.048779E1,4.5283386E1,9.678931E1,7.530502E1,8.355179E1,8.0430275E1,5.9794678E1,1.4431274E2,3.731662E1,6.583118E1,1.3807324E2,1.5735156E2,6.5467285E1,1.0237549E2,6.829297E1,9.560327E1,6.1260986E1,4.25343E1,9.17334E0,2.4918945E1,3.3402344E1,1.592041E1,1.3635986E1,3.139232E1,7.251663E1,1.8364258E1,9.719391E-1,2.7148438E-1,3.1439514E0,0E0,8.616943E0,6.616211E-2,4.3324615E1,5.5270508E1,1.9723633E1,9.289551E0,6.776123E-1,9.097519E0,8.91503E0,4.2148438E0,3.617054E1,3.1250122E1,4.1379368E1,5.3278885E1,7.359009E1,2.9930237E1,5.526329E1,3.738534E1,4.4244583E1,4.2983437E1,6.758306E1,4.5397373E1,7.48351E1,3.2753845E1,9.4158195E1,6.1468933E1,6.062622E0,7.3486206E1,1.786897E2,2.4711653E2,3.1981983E1,1.3197205E1,8.788275E1,3.6318085E1,1.3071729E2,1.0438672E2,8.360742E1,7.3947754E1,1.8157532E1,6.6913086E1,6.7341064E1,5.33302E1,8.715259E1,5.114731E1,7.980298E1,1.19437515E2,4.713208E1,4.269592E1,5.276953E1,6.136496E1,0E0,0E0,0E0,0E0,0E0,0E0,0E0,0E0,0E0,0E0,0E0,0E0,0E0,0E0,0E0,0E0,0E0,0E0,0E0,0E0,0E0,0E0,0E0,0E0,0E0,0E0,0E0,0E0,0E0,0E0,0E0,0E0,0E0,0E0,0E0,0E0,0E0,0E0,0E0,0E0,0E0,0E0,0E0,0E0,0E0,0E0,0E0,0E0,0E0,0E0,0E0,0E0,0E0,0E0,0E0,0E0,0E0,0E0,0E0,0E0,0E0,0E0,0E0,0E0,0E0,0E0,0E0,0E0,0E0,0E0,0E0,0E0,0E0,0E0,0E0,0E0,0E0,0E0,0E0,0E0,0E0,0E0,0E0,0E0,0E0,0E0,0E0,0E0,0E0,0E0,0E0,0E0,0E0,0E0,0E0,0E0,0E0,0E0,0E0,0E0,0E0,0E0,0E0,0E0,0E0,0E0,0E0,0E0,0E0,0E0,0E0,0E0,0E0,0E0,0E0,0E0,0E0,0E0,0E0,0E0,0E0,0E0],"parents":[2147483647,0,0,1,1,2,2,3,3,4,4,5,5,6,6,7,7,8,8,9,9,10,10,11,11,12,12,13,13,14,14,15,15,16,16,17,17,18,18,19,19,20,20,21,21,22,22,23,23,24,24,25,25,26,26,27,27,28,28,29,29,30,30,31,31,32,32,33,33,34,34,35,35,37,37,38,38,39,39,40,40,41,41,42,42,43,43,44,44,45,45,46,46,47,47,48,48,49,49,50,50,51,51,52,52,53,53,54,54,55,55,56,56,57,57,58,58,59,59,60,60,61,61,62,62,63,63,64,64,65,65,66,66,67,67,68,68,69,69,70,70,71,71,72,72,73,73,75,75,76,76,77,77,78,78,79,79,80,80,81,81,82,82,83,83,84,84,85,85,86,86,87,87,88,88,89,89,90,90,91,91,92,92,93,93,94,94,95,95,96,96,97,97,98,98,99,99,100,100,101,101,102,102,103,103,104,104,105,105,106,106,107,107,108,108,109,109,110,110,111,111,112,112,113,113,114,114,115,115,116,116,117,117,118,118,119,119,120,120,121,121,122,122,123,123,124,124],"right_children":[2,4,6,8,10,12,14,16,18,20,22,24,26,28,30,32,34,36,38,40,42,44,46,48,50,52,54,56,58,60,62,64,66,68,70,72,-1,74,76,78,80,82,84,86,88,90,92,94,96,98,100,102,104,106,108,110,112,114,116,118,120,122,124,126,128,130,132,134,136,138,140,142,144,146,-1,148,150,152,154,156,158,160,162,164,166,168,170,172,174,176,178,180,182,184,186,188,190,192,194,196,198,200,202,204,206,208,210,212,214,216,218,220,222,224,226,228,230,232,234,236,238,240,242,244,246,-1,-1,-1,-1,-1,-1,-1,-1,-1,-1,-1,-1,-1,-1,-1,-1,-1,-1,-1,-1,-1,-1,-1,-1,-1,-1,-1,-1,-1,-1,-1,-1,-1,-1,-1,-1,-1,-1,-1,-1,-1,-1,-1,-1,-1,-1,-1,-1,-1,-1,-1,-1,-1,-1,-1,-1,-1,-1,-1,-1,-1,-1,-1,-1,-1,-1,-1,-1,-1,-1,-1,-1,-1,-1,-1,-1,-1,-1,-1,-1,-1,-1,-1,-1,-1,-1,-1,-1,-1,-1,-1,-1,-1,-1,-1,-1,-1,-1,-1,-1,-1,-1,-1,-1,-1,-1,-1,-1,-1,-1,-1,-1,-1,-1,-1,-1,-1,-1,-1,-1,-1,-1],"split_conditions":[4.763402E1,3.2202484E1,6.3529522E1,1.8987623E1,4.0024994E1,5.531727E1,4E-1,2.8E1,1.9849434E1,1.2E2,1.3E1,5.008992E1,1.97E1,5.8647246E0,6.63E1,9.508085E0,1.05488615E1,9.65E1,0E0,1.2144632E1,1E0,4.3416588E1,5.52E1,9E0,7.399185E0,-3.1E0,5.879652E0,-5.7E1,-1E-1,2.21E1,4.722407E0,2.1246176E1,8E1,7.2E1,-3.1E0,-1.1E1,6.5851636E-2,9.1E0,3.82E1,-1.4E0,1.3E1,5E-1,4E-1,1.01120405E1,1E-1,1.0254159E1,3.3333334E-1,1.1111111E-1,6.08E1,3.78E1,-2E-1,-5.7E1,3.3333334E-1,-3.21E1,7.5726304E0,-4.3E1,5.45457E0,-6.6E1,5.85E1,5.8137174E0,7E0,1.1690552E2,7.4E1,1.3493702E1,1.053E2,3.29E1,1.05488615E1,-1.9E1,1.3518618E0,-4E0,1.1111111E-1,9.1E1,1.6155495E1,2.1246176E1,-6.066924E-2,9.71E1,4.63E1,-2.5E0,3.7860004E1,3.2695564E1,5.6E1,2.2222222E-1,6.3E0,3.3333334E-1,3.420526E1,8.991113E0,-2.2E1,7.41E1,3.3E1,0E0,4.6E1,1.115E2,8.300025E0,4.8754486E1,7.63E1,9.06E1,4.82E1,7.92E1,5.879652E0,-6E0,9.090277E0,7.7422953E0,6.56177E0,5.4E0,7.002281E0,5.730925E0,5.19E1,7.179518E0,5.6659332E1,9E0,1.68E1,7.87E1,3E0,7.6655075E1,-2.7E1,7.0907483E0,6.4327286E1,1.6E1,1.21E1,4.9376993E0,3.5E1,-3.98E1,6E-1,8E-1,7.63E1,5.8251116E-2,4.8358507E-2,-2.147605E-2,4.2802647E-2,4.9037125E-2,5.371146E-2,4.2506777E-2,5.662845E-2,-5.5133604E-2,3.6875334E-2,-7.378068E-2,3.27634E-2,3.657061E-2,-7.818572E-2,4.1072506E-2,4.5711968E-2,4.9759187E-2,6.3941404E-2,6.2226385E-2,6.0517173E-2,6.0195707E-2,3.0928824E-2,2.8214587E-2,5.531197E-2,5.7654537E-2,6.2077448E-2,-6.321361E-4,2.1722807E-2,3.055439E-2,2.5942938E-2,4.3625135E-2,3.2398935E-2,3.984027E-2,4.1555017E-3,4.9767382E-2,4.4757802E-2,-4.6497982E-2,3.8997527E-2,3.7571017E-2,-4.5275874E-2,1.3909265E-2,5.3732604E-2,1.06687825E-2,2.4004914E-4,3.445098E-2,1.4785559E-2,-6.5701436E-3,-4.312271E-2,-2.933841E-3,6.900177E-3,2.6429417E-3,1.7601054E-2,3.0060252E-2,1.6289104E-2,-8.326337E-3,2.3962224E-2,1.2990294E-2,-4.2733625E-2,-5.4930532E-3,-2.4114467E-2,3.441366E-3,-2.6747568E-2,7.6819756E-3,-2.7122688E-2,-2.2893654E-2,8.144048E-3,-1.541519E-2,-4.5545194E-3,-3.495092E-2,-1.7599719E-2,1.5118697E-2,-2.6163997E-2,-1.7395589E-3,-7.5255826E-2,-6.900278E-2,-5.0243963E-2,-5.8624584E-2,-2.3481088E-2,-2.3399932E-2,-1.3546763E-2,-2.116063E-2,6.91823E-4,-6.290976E-2,2.5589747E-2,-4.698923E-2,-7.022266E-2,-2.9854957E-2,1.535187E-4,-2.007904E-2,-5.319383E-2,-3.558273E-2,-1.57513E-2,-4.7742493E-2,-3.2095037E-2,-4.0739946E-2,-5.406419E-2,-3.854029E-2,-3.0999618E-2,-6.199114E-2,-2.2900803E-2,-2.7051842E-2,-3.68981E-2,-2.4443762E-2,-3.7132732E-3,-5.8196176E-2,-3.2707416E-2,-3.8540933E-2,-2.051273E-2,-1.8984389E-2,-4.1612912E-2,-2.8136393E-2,-2.0276506E-2,-4.5143228E-2,5.712972E-3,-3.624666E-2,-5.4433692E-2,-1.0888123E-2,-7.093717E-2,-3.784566E-2,2.635743E-2,-1.5856585E-2,-3.4408826E-2],"split_indices":[2,2,2,3,2,2,4,2,2,0,5,2,6,3,1,3,3,6,6,3,1,2,6,5,3,6,3,5,5,1,3,2,6,1,6,5,0,5,1,6,5,4,5,3,4,3,4,4,5,6,6,6,4,5,3,6,3,5,1,3,6,2,1,2,0,5,3,5,3,6,4,6,2,2,0,0,1,5,2,2,1,4,5,4,2,3,5,1,1,6,5,0,3,2,1,0,6,0,3,6,3,3,3,5,3,3,5,3,2,0,1,1,5,2,5,3,2,5,5,3,1,6,4,4,1,0,0,0,0,0,0,0,0,0,0,0,0,0,0,0,0,0,0,0,0,0,0,0,0,0,0,0,0,0,0,0,0,0,0,0,0,0,0,0,0,0,0,0,0,0,0,0,0,0,0,0,0,0,0,0,0,0,0,0,0,0,0,0,0,0,0,0,0,0,0,0,0,0,0,0,0,0,0,0,0,0,0,0,0,0,0,0,0,0,0,0,0,0,0,0,0,0,0,0,0,0,0,0,0,0,0,0,0,0,0,0,0,0,0,0,0,0,0,0,0,0,0],"split_type":[0,0,0,0,0,0,0,0,0,0,0,0,0,0,0,0,0,0,0,0,0,0,0,0,0,0,0,0,0,0,0,0,0,0,0,0,0,0,0,0,0,0,0,0,0,0,0,0,0,0,0,0,0,0,0,0,0,0,0,0,0,0,0,0,0,0,0,0,0,0,0,0,0,0,0,0,0,0,0,0,0,0,0,0,0,0,0,0,0,0,0,0,0,0,0,0,0,0,0,0,0,0,0,0,0,0,0,0,0,0,0,0,0,0,0,0,0,0,0,0,0,0,0,0,0,0,0,0,0,0,0,0,0,0,0,0,0,0,0,0,0,0,0,0,0,0,0,0,0,0,0,0,0,0,0,0,0,0,0,0,0,0,0,0,0,0,0,0,0,0,0,0,0,0,0,0,0,0,0,0,0,0,0,0,0,0,0,0,0,0,0,0,0,0,0,0,0,0,0,0,0,0,0,0,0,0,0,0,0,0,0,0,0,0,0,0,0,0,0,0,0,0,0,0,0,0,0,0,0,0,0,0,0,0,0,0,0,0,0,0,0,0,0,0,0,0,0],"sum_hessian":[2.003826E5,8.653078E4,1.1385181E5,3.9771523E4,4.6759254E4,3.584289E4,7.800892E4,2.9951709E4,9.819815E3,2.6530254E4,2.0229E4,1.7948645E4,1.7894246E4,6.059784E4,1.7411082E4,1.8647557E4,1.1304152E4,8.0527495E3,1.7670654E3,2.3564357E4,2.9658962E3,8.947392E3,1.1281609E4,5.624602E3,1.2324043E4,1.6173941E4,1.7203043E3,4.607138E4,1.452646E4,1.3966007E4,3.4450742E3,5.2752134E3,1.3372344E4,4.393347E3,6.9108057E3,6.2055093E3,1.8472405E3,4.085065E1,1.7262148E3,1.9462887E4,4.1014707E3,6.108791E2,2.355017E3,4.2235713E3,4.7238203E3,9.975703E3,1.3059064E3,2.2326958E3,3.3919062E3,4.806354E3,7.517689E3,7.226371E2,1.5451305E4,3.6504053E2,1.3552637E3,8.737932E3,3.733345E4,6.73268E3,7.79378E3,4.978351E3,8.987656E3,1.2168835E3,2.2281907E3,2.088144E3,3.1870696E3,1.096953E4,2.4028135E3,4.3773374E3,1.6009844E1,7.504491E1,6.8357607E3,1.0411223E2,6.101397E3,3.4712692E1,6.1379576E0,6.1979584E2,1.106419E3,7.1695636E2,1.874593E4,2.0553938E3,2.0460768E3,5.450504E2,6.582871E1,1.875317E1,2.336264E3,2.735754E3,1.4878174E3,1.0406791E3,3.6831414E3,8.439884E3,1.5358191E3,7.9511316E2,5.1079324E2,8.220993E2,1.4105966E3,3.0459084E3,3.459978E2,4.0682273E3,7.381268E2,5.4704834E2,6.9706406E3,1.4868294E2,5.7395416E2,1.2047106E4,3.4041982E3,2.8129423E1,3.369111E2,1.0509722E3,3.0429153E2,2.3490132E3,6.388918E3,2.8921566E4,8.411882E3,2.0552303E2,6.5271567E3,6.300715E3,1.4930646E3,4.0681082E3,9.102431E2,8.534973E3,4.52683E2,1.0749161E3,1.4196738E2,1.0800907E3,1.1481E3,1.9152733E2,1.8966167E3,9.121254E0,3.1779482E3,6.886553E3,4.0829763E3,1.5205144E2,2.250762E3,1.7390548E0,4.375598E3,6.980395E0,9.029449E0,6.585015E1,9.194756E0,2.1019963E3,4.733764E3,7.299728E1,3.1114956E1,3.7488428E3,2.352554E3,2.1411371E1,1.330132E1,2.2698912E1,5.970969E2,8.7981635E2,2.266026E2,1.8778522E2,5.2917114E2,1.240073E4,6.3451997E3,3.0375726E2,1.7516366E3,2.0340894E3,1.1987441E1,3.1295996E2,2.3209045E2,1.2474657E0,6.4581245E1,1.7258339E1,1.494831E0,5.0822744E0,2.3311816E3,2.012414E3,7.2333984E2,1.4291196E2,1.3449054E3,9.8945795E2,5.122106E1,1.4590275E3,2.224114E3,5.6433264E2,7.8755513E3,1.2116635E3,3.2415564E2,6.995952E2,9.551795E1,4.91705E2,1.9088251E1,3.7989267E2,4.4220663E2,1.3316016E3,7.899491E1,2.9548247E3,9.10837E1,2.3604935E2,1.0994845E2,1.9524052E3,2.1158223E3,2.8750348E2,4.5062332E2,1.1004217E2,4.3700616E2,6.953395E3,1.7245813E1,7.052309E1,7.815984E1,1.206825E2,4.5327164E2,5.1443643E3,6.902742E3,1.4196694E3,1.9845287E3,8.581096E0,1.9548328E1,2.861389E2,5.0772243E1,8.602576E2,1.907146E2,7.063363E1,2.336579E2,8.160505E2,1.5329626E3,7.817432E2,5.607175E3,2.8138305E4,7.832619E2,4.310613E3,4.101269E3,1.8257417E2,2.2948845E1,1.4289197E3,5.0982373E3,6.0387324E3,2.6198264E2,1.4687779E2,1.3461868E3,3.576345E3,4.9176328E2,7.025307E2,2.0771237E2,3.561254E3,4.973719E3,9.186186E1,3.6082117E2,3.4582883E2,7.290874E2,1.2035567E2,2.1611702E1,1.0598665E3,2.0224213E1,5.532925E2,5.9480756E2],"tree_param":{"num_deleted":"0","num_feature":"7","num_nodes":"247","size_leaf_vector":"1"}},{"base_weights":[1.6308815E-5,8.608841E-1,-6.5339166E-1,1.213587E0,5.6218284E-1,-2.64172E-1,-8.2806385E-1,1.1239992E0,1.4877276E0,7.8064805E-1,2.762442E-1,-1.0123626E-1,-4.3375465E-1,-8.7870294E-1,-7.0460004E-1,1.2040224E0,9.92141E-1,1.4503958E0,1.5728319E0,7.2078216E-1,1.2579292E0,1.1463207E-1,3.8011992E-1,2.282147E-2,-1.5784903E-1,-3.9480805E-1,-7.9506207E-1,-7.1056116E-1,-9.2617995E-1,-7.286321E-1,-3.8324165E-1,1.0917697E0,1.2482833E0,8.8207257E-1,1.0620658E0,1.3879005E0,1.499259E0,3.200224E-2,1.5736226E0,6.6168654E-1,8.226201E-1,1.1242963E0,1.2921543E0,2.5117677E-1,-7.952842E-3,4.227637E-1,4.4120666E-2,-1.2966034E-1,1.00922525E-1,-2.4752712E-1,-3.4135915E-2,-1.1607691E0,-3.8077927E-1,-1.1044183E0,-7.138451E-1,-9.3397707E-1,-6.542342E-1,-9.676575E-1,-7.7678686E-1,-7.8339183E-1,-6.17733E-1,-5.339257E-1,4.7764056E-3,1.1318982E0,9.301094E-1,1.2263725E0,1.3478584E0,8.8674855E-1,-3.694784E-1,5.206905E-1,1.0679454E0,1.1001058E0,1.3950001E0,6.658543E-2,5.9809417E-2,6.234895E-2,6.529617E-2,7.150529E-1,5.7986665E-1,7.3359835E-1,8.859946E-1,1.151726E0,8.8376147E-1,6.979457E-1,1.2966388E0,-1.7948648E-1,2.7898028E-1,-1.6080241E-1,8.441335E-2,3.8206962E-1,6.443358E-1,-1.10534154E-1,2.8150275E-1,-3.791811E-1,1.4847535E-2,1.4344317E-1,-3.1320333E-1,-6.636941E-1,-2.1831705E-1,-1.4186004E-1,1.127017E-1,7.043577E-1,-1.234454E0,-4.343283E-1,-1.9348852E-1,2.1972219E-2,-1.1979057E0,-5.989078E-1,-1.1006783E0,-6.8685E-1,-1.0230083E0,-6.080831E-1,-1.0080914E0,-9.929282E-1,-8.36013E-1,-8.479478E-1,-6.570097E-1,-8.4344053E-1,-5.879968E-1,-5.618029E-1,-8.982018E-1,-6.6915274E-1,-1.4915803E-1,1.5529503E-1,-5.7219136E-1,5.6321748E-2,4.4738125E-2,3.9033465E-2,5.623096E-3,4.735598E-2,5.1910166E-2,4.1025214E-2,5.4768294E-2,3.6426775E-2,2.9967353E-2,-7.104407E-2,3.1637903E-2,3.524286E-2,-7.505204E-2,3.7854977E-2,4.3615595E-2,5.437872E-2,-4.0182797E-3,5.671818E-2,5.3074386E-2,2.9288141E-2,2.2746045E-2,1.3702009E-2,2.5061661E-2,3.834974E-2,2.7996851E-2,3.816276E-2,3.2483764E-2,3.2940105E-2,4.6440028E-2,9.133137E-3,4.3814328E-2,-4.8776645E-2,3.571113E-2,5.364757E-2,4.966387E-2,-2.4742357E-2,4.9157804E-3,4.477471E-2,1.0572668E-2,-8.372259E-3,2.6987249E-2,3.8232522E-3,-2.9777735E-2,2.684155E-3,1.6193513E-2,2.815752E-2,1.5648905E-2,-8.192027E-3,2.3189139E-2,1.3227497E-2,-4.129025E-2,8.732501E-3,-1.986447E-2,2.4855053E-3,-3.2095037E-2,6.640893E-3,-2.2263963E-2,-7.107401E-2,-9.027145E-3,-5.3791065E-2,-2.2432169E-2,-2.4631994E-2,-7.6785753E-3,-1.5916198E-2,-2.3997875E-3,9.193075E-3,-3.6048582E-3,6.53413E-2,-5.605604E-2,-5.748795E-2,-2.2093417E-2,-6.0975693E-2,-1.6870415E-2,-2.045902E-2,1.1239359E-3,-5.989145E-2,2.4651982E-2,-3.8408816E-2,-5.7989992E-2,-2.8607888E-2,-8.803045E-4,-3.5655316E-2,-6.7507245E-2,-2.4309646E-2,-6.0805473E-2,-4.594733E-2,-3.0910641E-2,-3.235154E-2,-2.0199072E-2,-2.1485634E-2,-4.347422E-2,-3.4103736E-2,-4.0500633E-2,-1.204232E-2,-3.480952E-2,-3.8950093E-2,-3.0126793E-2,-5.0879307E-2,-2.4645336E-2,-5.233262E-2,-3.3136126E-2,-1.4799358E-2,-2.7544685E-2,-1.9946458E-2,-3.075623E-2,-3.6845088E-2,5.4589834E-2,-2.2029046E-2,-5.0522115E-2,1.7848043E-2,-2.0705204E-2,-3.8502447E-2,1.053582E-2,-1.1067442E-2,-7.211925E-2],"categories":[],"categories_nodes":[],"categories_segments":[],"categories_sizes":[],"default_left":[0,0,0,0,0,0,0,0,0,0,0,0,0,0,0,0,0,0,0,0,0,0,0,0,0,0,0,0,0,0,0,0,0,0,0,0,0,0,0,0,0,0,0,0,0,0,0,0,0,0,0,0,0,0,0,0,0,0,0,0,0,0,0,0,0,0,0,0,0,0,0,0,0,0,0,0,0,0,0,0,0,0,0,0,0,0,0,0,0,0,0,0,0,0,0,0,0,0,0,0,0,0,0,0,0,0,0,0,0,0,0,0,0,0,0,0,0,0,0,0,0,0,0,0,0,0,0,0,0,0,0,0,0,0,0,0,0,0,0,0,0,0,0,0,0,0,0,0,0,0,0,0,0,0,0,0,0,0,0,0,0,0,0,0,0,0,0,0,0,0,0,0,0,0,0,0,0,0,0,0,0,0,0,0,0,0,0,0,0,0,0,0,0,0,0,0,0,0,0,0,0,0,0,0,0,0,0,0,0,0,0,0,0,0,0,0,0,0,0,0,0,0,0,0,0,0,0,0,0,0,0,0,0,0,0,0,0,0,0,0,0],"id":5,"left_children":[1,3,5,7,9,11,13,15,17,19,21,23,25,27,29,31,33,35,37,39,41,43,45,47,49,51,53,55,57,59,61,63,65,67,69,71,73,-1,75,77,79,81,83,85,87,89,91,93,95,97,99,101,103,105,107,109,111,113,115,117,119,121,123,125,127,129,131,133,135,137,139,141,143,-1,-1,-1,-1,145,147,149,151,153,155,157,159,161,163,165,167,169,171,173,175,177,179,181,183,185,187,189,191,193,195,197,199,201,203,205,207,209,211,213,215,217,219,221,223,225,227,229,231,233,235,237,239,-1,-1,-1,-1,-1,-1,-1,-1,-1,-1,-1,-1,-1,-1,-1,-1,-1,-1,-1,-1,-1,-1,-1,-1,-1,-1,-1,-1,-1,-1,-1,-1,-1,-1,-1,-1,-1,-1,-1,-1,-1,-1,-1,-1,-1,-1,-1,-1,-1,-1,-1,-1,-1,-1,-1,-1,-1,-1,-1,-1,-1,-1,-1,-1,-1,-1,-1,-1,-1,-1,-1,-1,-1,-1,-1,-1,-1,-1,-1,-1,-1,-1,-1,-1,-1,-1,-1,-1,-1,-1,-1,-1,-1,-1,-1,-1,-1,-1,-1,-1,-1,-1,-1,-1,-1,-1,-1,-1,-1,-1,-1,-1,-1,-1,-1,-1],"loss_changes":[1.1238275E5,9.081797E3,7.7217617E3,9.691875E2,2.915795E3,9.7215283E2,4.8954297E2,3.1322656E2,2.8642578E1,7.551826E2,3.3939355E2,1.2603879E2,2.4228857E2,4.431172E2,1.7586328E2,9.075E1,8.572461E1,1.861914E1,5.463867E-1,1.4097168E2,1.2029297E1,1.3244562E2,1.7633276E2,6.698971E1,1.3670047E2,1.6681079E2,4.1335938E1,1.534834E2,2.6784766E2,1.283789E2,9.291177E1,3.3009766E1,2.7341797E1,2.5961182E1,2.1345215E1,4.569824E0,3.4179688E-2,0E0,4.0039062E-2,6.458154E1,4.8041992E1,2.9986572E0,5.3310547E0,4.487094E1,5.8891872E1,9.823108E1,5.096092E1,6.870871E1,6.55443E1,8.6696075E1,8.194771E1,3.9276184E1,1.5322754E2,3.6546448E1,5.8509583E1,5.3493164E1,1.5914746E2,1.1202734E2,7.97749E1,1.6613477E2,1.0960132E2,5.9453857E1,3.877607E1,1.4026855E1,3.7763855E1,3.1521484E1,1.5014648E1,1.3679199E1,2.9169853E1,6.71971E1,1.7538086E1,2.4007774E1,2.6733398E0,0E0,0E0,0E0,0E0,2.219336E1,6.493225E1,2.6586426E1,2.4564209E1,6.972656E-1,8.9880905E0,8.445922E0,4.0268555E0,3.0295559E1,4.3039307E1,6.3813995E1,2.4140066E1,6.61593E1,2.5268127E1,5.4823414E1,3.572205E1,4.9140434E1,4.6717308E1,5.342314E1,4.4009476E1,3.2043777E1,6.981827E1,6.2612495E1,5.2104156E1,2.4316135E1,3.643576E1,1.6220361E2,2.3962894E2,2.5807943E1,1.7777802E1,6.895975E1,3.580002E1,4.228195E1,5.5997437E1,1.7873071E2,4.1227295E1,7.735547E1,9.988086E1,6.9720215E1,8.7625854E1,7.483887E1,7.3052E1,7.617761E1,6.1713074E1,5.8851624E1,6.5810455E1,4.3042484E1,3.3101578E1,0E0,0E0,0E0,0E0,0E0,0E0,0E0,0E0,0E0,0E0,0E0,0E0,0E0,0E0,0E0,0E0,0E0,0E0,0E0,0E0,0E0,0E0,0E0,0E0,0E0,0E0,0E0,0E0,0E0,0E0,0E0,0E0,0E0,0E0,0E0,0E0,0E0,0E0,0E0,0E0,0E0,0E0,0E0,0E0,0E0,0E0,0E0,0E0,0E0,0E0,0E0,0E0,0E0,0E0,0E0,0E0,0E0,0E0,0E0,0E0,0E0,0E0,0E0,0E0,0E0,0E0,0E0,0E0,0E0,0E0,0E0,0E0,0E0,0E0,0E0,0E0,0E0,0E0,0E0,0E0,0E0,0E0,0E0,0E0,0E0,0E0,0E0,0E0,0E0,0E0,0E0,0E0,0E0,0E0,0E0,0E0,0E0,0E0,0E0,0E0,0E0,0E0,0E0,0E0,0E0,0E0,0E0,0E0,0E0,0E0,0E0,0E0,0E0,0E0,0E0,0E0],"parents":[2147483647,0,0,1,1,2,2,3,3,4,4,5,5,6,6,7,7,8,8,9,9,10,10,11,11,12,12,13,13,14,14,15,15,16,16,17,17,18,18,19,19,20,20,21,21,22,22,23,23,24,24,25,25,26,26,27,27,28,28,29,29,30,30,31,31,32,32,33,33,34,34,35,35,36,36,38,38,39,39,40,40,41,41,42,42,43,43,44,44,45,45,46,46,47,47,48,48,49,49,50,50,51,51,52,52,53,53,54,54,55,55,56,56,57,57,58,58,59,59,60,60,61,61,62,62,63,63,64,64,65,65,66,66,67,67,68,68,69,69,70,70,71,71,72,72,77,77,78,78,79,79,80,80,81,81,82,82,83,83,84,84,85,85,86,86,87,87,88,88,89,89,90,90,91,91,92,92,93,93,94,94,95,95,96,96,97,97,98,98,99,99,100,100,101,101,102,102,103,103,104,104,105,105,106,106,107,107,108,108,109,109,110,110,111,111,112,112,113,113,114,114,115,115,116,116,117,117,118,118,119,119,120,120,121,121,122,122,123,123,124,124],"right_children":[2,4,6,8,10,12,14,16,18,20,22,24,26,28,30,32,34,36,38,40,42,44,46,48,50,52,54,56,58,60,62,64,66,68,70,72,74,-1,76,78,80,82,84,86,88,90,92,94,96,98,100,102,104,106,108,110,112,114,116,118,120,122,124,126,128,130,132,134,136,138,140,142,144,-1,-1,-1,-1,146,148,150,152,154,156,158,160,162,164,166,168,170,172,174,176,178,180,182,184,186,188,190,192,194,196,198,200,202,204,206,208,210,212,214,216,218,220,222,224,226,228,230,232,234,236,238,240,-1,-1,-1,-1,-1,-1,-1,-1,-1,-1,-1,-1,-1,-1,-1,-1,-1,-1,-1,-1,-1,-1,-1,-1,-1,-1,-1,-1,-1,-1,-1,-1,-1,-1,-1,-1,-1,-1,-1,-1,-1,-1,-1,-1,-1,-1,-1,-1,-1,-1,-1,-1,-1,-1,-1,-1,-1,-1,-1,-1,-1,-1,-1,-1,-1,-1,-1,-1,-1,-1,-1,-1,-1,-1,-1,-1,-1,-1,-1,-1,-1,-1,-1,-1,-1,-1,-1,-1,-1,-1,-1,-1,-1,-1,-1,-1,-1,-1,-1,-1,-1,-1,-1,-1,-1,-1,-1,-1,-1,-1,-1,-1,-1,-1,-1,-1],"split_conditions":[4.763402E1,3.2202484E1,6.3245552E1,1.8987623E1,4.0024994E1,5.531727E1,5.715096E0,2.8E1,8.52E1,1.2E2,9.6E0,5.008992E1,1.97E1,-5.55E1,7.002281E0,9.508085E0,1.05488615E1,1.047E2,-1.9E1,1.104094E1,1E0,4.3416588E1,5.52E1,5.8E0,8.049656E0,-4.2E1,5.879652E0,2.21E1,3.3333334E-1,1E1,1.3E1,2.6400757E1,8E1,7.2E1,-3.1E0,-4E-1,-2.5E0,3.200224E-2,1.075E2,3.748333E1,8E0,5E-1,4E-1,3.9733927E0,1.1111111E-1,1.0254159E1,3.3333334E-1,1.1111111E-1,6.08E1,5.8933544E0,1.3E1,7E0,3.3333334E-1,-3.21E1,7.5726304E0,3.9486966E0,6.9E1,5.45457E0,-9E-1,4E-1,6.43E1,3.3333334E-1,4.49E1,1.3493702E1,8.611632E0,3.29E1,1.05488615E1,8.1E1,1.3518618E0,-4E0,1E-1,2.1246176E1,9E-1,6.658543E-2,5.9809417E-2,6.234895E-2,6.529617E-2,8.5E1,-2E0,2.53E1,3.5486618E1,3.9E0,2.43E1,1E-1,2.2222222E-1,4E-1,2E0,1.0254159E1,7E-1,0E0,4.6E1,1.115E2,8.300025E0,7.18E1,7.63E1,9.06E1,0E0,8.3E1,-7E-1,1E-1,4.5E1,5.912597E1,5.7E1,-3E1,7.002281E0,5.730925E0,7.61E1,7.2150936E0,5.977458E1,2E-1,4.603767E0,1E1,-8.7E1,-4.7E1,-3.91E1,3.6E1,3E0,-6.2E1,-1.8E1,3.4E1,8E-1,4.63E1,3.6E1,3.03E1,4.15E1,5.6321748E-2,4.4738125E-2,3.9033465E-2,5.623096E-3,4.735598E-2,5.1910166E-2,4.1025214E-2,5.4768294E-2,3.6426775E-2,2.9967353E-2,-7.104407E-2,3.1637903E-2,3.524286E-2,-7.505204E-2,3.7854977E-2,4.3615595E-2,5.437872E-2,-4.0182797E-3,5.671818E-2,5.3074386E-2,2.9288141E-2,2.2746045E-2,1.3702009E-2,2.5061661E-2,3.834974E-2,2.7996851E-2,3.816276E-2,3.2483764E-2,3.2940105E-2,4.6440028E-2,9.133137E-3,4.3814328E-2,-4.8776645E-2,3.571113E-2,5.364757E-2,4.966387E-2,-2.4742357E-2,4.9157804E-3,4.477471E-2,1.0572668E-2,-8.372259E-3,2.6987249E-2,3.8232522E-3,-2.9777735E-2,2.684155E-3,1.6193513E-2,2.815752E-2,1.5648905E-2,-8.192027E-3,2.3189139E-2,1.3227497E-2,-4.129025E-2,8.732501E-3,-1.986447E-2,2.4855053E-3,-3.2095037E-2,6.640893E-3,-2.2263963E-2,-7.107401E-2,-9.027145E-3,-5.3791065E-2,-2.2432169E-2,-2.4631994E-2,-7.6785753E-3,-1.5916198E-2,-2.3997875E-3,9.193075E-3,-3.6048582E-3,6.53413E-2,-5.605604E-2,-5.748795E-2,-2.2093417E-2,-6.0975693E-2,-1.6870415E-2,-2.045902E-2,1.1239359E-3,-5.989145E-2,2.4651982E-2,-3.8408816E-2,-5.7989992E-2,-2.8607888E-2,-8.803045E-4,-3.5655316E-2,-6.7507245E-2,-2.4309646E-2,-6.0805473E-2,-4.594733E-2,-3.0910641E-2,-3.235154E-2,-2.0199072E-2,-2.1485634E-2,-4.347422E-2,-3.4103736E-2,-4.0500633E-2,-1.204232E-2,-3.480952E-2,-3.8950093E-2,-3.0126793E-2,-5.0879307E-2,-2.4645336E-2,-5.233262E-2,-3.3136126E-2,-1.4799358E-2,-2.7544685E-2,-1.9946458E-2,-3.075623E-2,-3.6845088E-2,5.4589834E-2,-2.2029046E-2,-5.0522115E-2,1.7848043E-2,-2.0705204E-2,-3.8502447E-2,1.053582E-2,-1.1067442E-2,-7.211925E-2],"split_indices":[2,2,2,3,2,2,3,2,6,0,5,2,6,5,3,3,3,0,5,3,1,2,6,5,3,5,3,1,4,5,5,2,6,1,6,6,6,0,6,2,5,4,5,3,4,3,4,4,5,3,5,1,4,5,3,3,1,3,5,4,1,4,1,2,3,5,3,5,3,6,4,2,6,0,0,0,0,5,5,1,2,5,5,4,4,5,1,3,4,6,5,0,3,0,1,0,6,0,6,4,1,2,1,6,3,3,0,3,2,6,3,0,6,6,5,1,1,5,5,5,4,1,1,1,5,0,0,0,0,0,0,0,0,0,0,0,0,0,0,0,0,0,0,0,0,0,0,0,0,0,0,0,0,0,0,0,0,0,0,0,0,0,0,0,0,0,0,0,0,0,0,0,0,0,0,0,0,0,0,0,0,0,0,0,0,0,0,0,0,0,0,0,0,0,0,0,0,0,0,0,0,0,0,0,0,0,0,0,0,0,0,0,0,0,0,0,0,0,0,0,0,0,0,0,0,0,0,0,0,0,0,0,0,0,0,0,0,0,0,0,0],"split_type":[0,0,0,0,0,0,0,0,0,0,0,0,0,0,0,0,0,0,0,0,0,0,0,0,0,0,0,0,0,0,0,0,0,0,0,0,0,0,0,0,0,0,0,0,0,0,0,0,0,0,0,0,0,0,0,0,0,0,0,0,0,0,0,0,0,0,0,0,0,0,0,0,0,0,0,0,0,0,0,0,0,0,0,0,0,0,0,0,0,0,0,0,0,0,0,0,0,0,0,0,0,0,0,0,0,0,0,0,0,0,0,0,0,0,0,0,0,0,0,0,0,0,0,0,0,0,0,0,0,0,0,0,0,0,0,0,0,0,0,0,0,0,0,0,0,0,0,0,0,0,0,0,0,0,0,0,0,0,0,0,0,0,0,0,0,0,0,0,0,0,0,0,0,0,0,0,0,0,0,0,0,0,0,0,0,0,0,0,0,0,0,0,0,0,0,0,0,0,0,0,0,0,0,0,0,0,0,0,0,0,0,0,0,0,0,0,0,0,0,0,0,0,0,0,0,0,0,0,0,0,0,0,0,0,0,0,0,0,0,0,0],"sum_hessian":[1.9979031E5,8.620912E4,1.13581195E5,3.952976E4,4.667935E4,3.51839E4,7.83973E4,2.979726E4,9.732502E3,2.6460816E4,2.0218537E4,1.794442E4,1.7239479E4,5.5590523E4,2.2806771E4,1.8538402E4,1.1258857E4,6.7775215E3,2.9549805E3,2.351395E4,2.9468674E3,7.9116E3,1.23069375E4,5.6230386E3,1.2321382E4,1.5563887E4,1.6755929E3,1.2243959E4,4.3346566E4,2.1218713E4,1.5880577E3,5.249772E3,1.3288631E4,4.3791943E3,6.8796626E3,2.9868206E3,3.7907012E3,4.0554743E0,2.950925E3,1.4884251E4,8.629698E3,6.0774756E2,2.3391199E3,3.7421975E3,4.1694023E3,1.0920669E4,1.3862687E3,1.9043638E3,3.7186746E3,7.142716E3,5.178666E3,2.7846005E2,1.5285427E4,3.458083E2,1.3297847E3,2.4622158E3,9.781743E3,3.392275E4,9.423816E3,1.4200646E4,7.018067E3,1.1435804E3,4.4447736E2,4.200975E3,1.0487969E3,1.090286E4,2.38577E3,4.3631846E3,1.6009954E1,7.487596E1,6.8047866E3,7.566249E1,2.9111582E3,8.02316E1,3.7104695E3,2.3761807E3,5.747445E2,9.003839E3,5.8804116E3,3.593919E3,5.035779E3,5.421359E2,6.5611595E1,1.8694733E1,2.320425E3,2.266131E2,3.5155845E3,1.5702228E3,2.5991797E3,9.228483E3,1.6921849E3,8.397225E2,5.465462E2,6.978196E2,1.2065442E3,3.373003E3,3.456717E2,4.670309E2,6.6756846E3,2.9872046E3,2.1914617E3,1.0257639E1,2.6820242E2,1.1885793E4,3.399633E3,2.6560247E1,3.1924805E2,1.0271443E3,3.0264035E2,6.544243E2,1.8077915E3,8.655577E3,1.126166E3,2.845411E4,5.46864E3,5.90783E3,3.5159863E3,1.0859879E4,3.3407668E3,5.853738E3,1.1643291E3,8.456401E2,2.979403E2,3.5309357E2,9.1383766E1,1.9022491E2,4.0107502E3,9.9115607E2,5.7640793E1,6.846621E3,4.0562395E3,1.5129225E2,2.2344778E3,3.7120786E3,6.511059E2,6.9974084E0,9.012547E0,6.563965E1,9.236311E0,1.0672366E3,5.7375503E3,6.211187E1,1.3550627E1,2.1627734E3,7.483847E2,8.0560854E3,9.4775397E2,9.6783624E2,4.912575E3,4.6405414E2,3.129865E3,2.6150122E3,2.4207666E3,1.7365705E1,5.2477026E2,1.6519762E1,4.909183E1,1.239355E0,1.7455378E1,1.2695228E3,1.0509023E3,9.199137E1,1.3462173E2,5.8998062E1,3.4565864E3,1.4847737E3,8.544916E1,2.565497E3,3.3682636E1,6.224018E2,8.606082E3,1.3682201E3,3.2396484E2,7.3944293E2,1.0027959E2,5.2754425E2,1.9001984E1,1.1448001E2,5.833396E2,1.141418E3,6.512623E1,3.2683484E3,1.04654495E2,1.8415426E1,3.2725626E2,5.9709835E1,4.073211E2,4.136807E2,6.262004E3,7.2277325E2,2.2644312E3,1.3891375E3,8.023243E2,7.2727585E0,2.9848804E0,2.0589708E2,6.230535E1,1.3410417E2,1.1751689E4,1.3955907E3,2.0040425E3,7.0413613E0,1.9518885E1,1.6671689E2,1.5253116E2,8.546312E2,1.7251309E2,2.2495227E2,7.768807E1,5.9926215E2,5.5162167E1,1.2010292E3,6.0676227E2,2.9351707E3,5.7204067E3,1.6247954E2,9.6368646E2,3.490583E3,2.4963527E4,3.294204E2,5.1392197E3,2.534439E3,3.373391E3,2.172596E2,3.2987266E3,3.3758356E2,1.0522296E4,1.0564489E3,2.284318E3,4.4886484E3,1.3650891E3,1.1532389E3,1.1090227E1,7.066567E2,1.3898344E2,1.1382175E2,1.8411856E2,3.0437557E1,3.2265604E2,7.4678665E1,1.67051E1],"tree_param":{"num_deleted":"0","num_feature":"7","num_nodes":"241","size_leaf_vector":"1"}},{"base_weights":[3.037852E-5,8.30145E-1,-6.290319E-1,1.1735373E0,5.408112E-1,-2.5382972E-1,-7.9789317E-1,1.0857042E0,1.4434869E0,7.51782E-1,2.6535994E-1,-9.723135E-2,-4.1697714E-1,-8.470155E-1,-6.782856E-1,1.1639696E0,9.5702034E-1,1.4066185E0,1.5276625E0,6.9372696E-1,1.2169396E0,1.2507607E-1,3.767287E-1,2.1887522E-2,-1.5159264E-1,-3.794104E-1,-7.665192E-1,-6.840823E-1,-8.930955E-1,-7.0148355E-1,-3.6853507E-1,1.0541493E0,1.2073457E0,8.5003626E-1,1.0250903E0,1.436503E0,1.3059709E0,3.1104706E-2,1.5284331E0,6.3659734E-1,7.9227996E-1,1.0861137E0,1.2505136E0,2.5358182E-1,1.0206897E-2,4.2143318E-1,3.5458207E-2,-1.0885557E-1,1.0620817E-1,-2.783669E-1,-7.057441E-2,-1.1199416E0,-3.658983E-1,-1.0684063E0,-6.875854E-1,-5.037357E-1,-7.541016E-1,-9.33427E-1,-7.480693E-1,-7.804808E-1,-6.2889487E-1,-5.1356214E-1,4.325521E-3,1.151736E0,9.900445E-1,1.1858777E0,1.3050327E0,8.545586E-1,-3.5746592E-1,5.009189E-1,1.030796E0,1.1169881E0,1.4393862E0,7.536151E-1,1.3202829E0,6.054656E-2,6.347125E-2,6.881325E-1,5.576402E-1,7.061396E-1,8.5366267E-1,1.1128483E0,8.523343E-1,6.7108196E-1,1.2549132E0,1.7985815E-1,3.8900992E-1,-1.9773027E-1,6.89796E-2,3.5058546E-1,5.324726E-1,-1.01765245E-1,2.4894507E-1,-3.685039E-1,4.1527245E-2,1.5209156E-1,-3.0111668E-1,-2.2510524E-1,-5.7178396E-1,1.1933404E-2,-1.92242E-1,6.7641926E-1,-1.1913041E0,-4.1739863E-1,-1.8586017E-1,1.982827E-2,-1.159011E0,-5.7624954E-1,-1.0638803E0,-7.1261954E-1,-3.3113715E-1,-9.898801E-1,-6.935909E-1,-9.534308E-1,-7.656135E-1,-8.169482E-1,-6.3226616E-1,-8.438276E-1,-5.8045304E-1,-5.8557594E-1,-8.6405635E-1,-6.4394265E-1,-1.432656E-1,1.4898162E-1,-5.5092245E-1,4.0165856E-2,4.7501888E-2,-1.0917669E-2,3.9823227E-2,4.5775555E-2,5.0226927E-2,3.962217E-2,5.3037185E-2,3.2744378E-2,3.781453E-2,-6.857095E-2,3.0563705E-2,3.3980835E-2,-7.224548E-2,3.9249565E-2,4.3376233E-2,-5.3077657E-2,4.8149575E-2,5.6530792E-2,5.8963183E-2,4.731222E-2,-5.9515655E-2,4.952564E-2,5.456017E-2,-6.510624E-2,2.7563293E-2,1.3166386E-2,2.4104826E-2,3.073609E-2,2.3512635E-2,3.678494E-2,3.1284653E-2,4.6531837E-2,4.1606E-2,4.114323E-2,2.6999079E-3,3.524385E-2,-4.5062475E-2,1.17726475E-2,5.0275635E-2,9.855223E-3,-2.0867221E-4,2.5631737E-2,1.2303124E-2,-6.143415E-3,-4.134965E-2,-2.928184E-3,6.490337E-3,1.6528493E-2,1.0453565E-2,1.992571E-2,3.550427E-2,-7.6699876E-3,2.2157915E-2,1.1954227E-2,-3.992243E-2,-1.1419601E-2,-5.46809E-2,-7.123336E-3,7.3997E-3,7.05299E-3,-2.5406167E-2,-2.5459012E-2,2.344139E-3,-1.4464072E-2,-3.963281E-3,-3.275189E-2,-1.6534328E-2,-9.073038E-3,3.202542E-3,-3.81246E-2,-5.7219383E-3,6.287287E-2,-5.4570235E-2,-5.1905926E-2,3.19207E-3,-5.9156477E-2,-1.6210837E-2,-1.9668149E-2,1.0789676E-3,-5.8365438E-2,2.3754517E-2,-3.707157E-2,-5.6252364E-2,-2.7537502E-2,-8.452934E-4,-3.4382857E-2,-6.566786E-2,-3.560146E-2,-1.0488299E-2,-8.865106E-3,-4.6433844E-2,-6.2676385E-2,-3.8132306E-2,-2.1354413E-2,-3.1201541E-2,-4.028949E-2,-3.5903223E-2,-2.8488604E-2,-4.5212325E-2,-3.161348E-2,-5.0171144E-2,-4.9200464E-2,-2.3709182E-2,-5.065602E-2,-3.297665E-2,-1.4221377E-2,-3.0069217E-2,-2.381485E-2,8.876263E-3,-3.5120204E-2,3.8200617E-2,-2.0661341E-2,-4.6431735E-2,1.7131936E-2,-1.9900508E-2,-3.7108675E-2,1.0111853E-2,-1.0635942E-2,-6.971084E-2],"categories":[],"categories_nodes":[],"categories_segments":[],"categories_sizes":[],"default_left":[0,0,0,0,0,0,0,0,0,0,0,0,0,0,0,0,0,0,0,0,0,0,0,0,0,0,0,0,0,0,0,0,0,0,0,0,0,0,0,0,0,0,0,0,0,0,0,0,0,0,0,0,0,0,0,0,0,0,0,0,0,0,0,0,0,0,0,0,0,0,0,0,0,0,0,0,0,0,0,0,0,0,0,0,0,0,0,0,0,0,0,0,0,0,0,0,0,0,0,0,0,0,0,0,0,0,0,0,0,0,0,0,0,0,0,0,0,0,0,0,0,0,0,0,0,0,0,0,0,0,0,0,0,0,0,0,0,0,0,0,0,0,0,0,0,0,0,0,0,0,0,0,0,0,0,0,0,0,0,0,0,0,0,0,0,0,0,0,0,0,0,0,0,0,0,0,0,0,0,0,0,0,0,0,0,0,0,0,0,0,0,0,0,0,0,0,0,0,0,0,0,0,0,0,0,0,0,0,0,0,0,0,0,0,0,0,0,0,0,0,0,0,0,0,0,0,0,0,0,0,0,0,0,0,0,0,0,0,0,0,0,0,0,0,0],"id":6,"left_children":[1,3,5,7,9,11,13,15,17,19,21,23,25,27,29,31,33,35,37,39,41,43,45,47,49,51,53,55,57,59,61,63,65,67,69,71,73,-1,75,77,79,81,83,85,87,89,91,93,95,97,99,101,103,105,107,109,111,113,115,117,119,121,123,125,127,129,131,133,135,137,139,141,143,145,147,-1,-1,149,151,153,155,157,159,161,163,165,167,169,171,173,175,177,179,181,183,185,187,189,191,193,195,197,199,201,203,205,207,209,211,213,215,217,219,221,223,225,227,229,231,233,235,237,239,241,243,-1,-1,-1,-1,-1,-1,-1,-1,-1,-1,-1,-1,-1,-1,-1,-1,-1,-1,-1,-1,-1,-1,-1,-1,-1,-1,-1,-1,-1,-1,-1,-1,-1,-1,-1,-1,-1,-1,-1,-1,-1,-1,-1,-1,-1,-1,-1,-1,-1,-1,-1,-1,-1,-1,-1,-1,-1,-1,-1,-1,-1,-1,-1,-1,-1,-1,-1,-1,-1,-1,-1,-1,-1,-1,-1,-1,-1,-1,-1,-1,-1,-1,-1,-1,-1,-1,-1,-1,-1,-1,-1,-1,-1,-1,-1,-1,-1,-1,-1,-1,-1,-1,-1,-1,-1,-1,-1,-1,-1,-1,-1,-1,-1,-1,-1,-1,-1,-1,-1,-1],"loss_changes":[1.03974375E5,8.5278125E3,7.176422E3,9.2909766E2,2.707121E3,8.9819604E2,4.5838672E2,2.9719922E2,2.7746094E1,7.115742E2,3.1566125E2,1.1617508E2,2.2580933E2,4.1510156E2,1.6319043E2,8.64375E1,8.074414E1,1.8310547E1,5E-1,1.3156152E2,1.1493164E1,1.3202826E2,1.7183594E2,6.199711E1,1.26506256E2,1.5518164E2,3.9059753E1,1.5382275E2,2.5174219E2,1.2085254E2,8.581766E1,3.1523438E1,2.6121094E1,2.4135254E1,1.9953613E1,3.1503906E0,1.1239014E1,0E0,1.1328125E-1,6.005713E1,4.488867E1,2.8336182E0,5.0771484E0,4.2079163E1,5.7743397E1,7.816345E1,3.8277554E1,8.611182E1,6.393834E1,7.492767E1,7.546184E1,3.646347E1,1.4152893E2,3.3974365E1,5.4967285E1,1.2299835E2,1.2478174E2,1.1261719E2,7.4430176E1,1.2785596E2,1.11885254E2,5.5070557E1,3.58567E1,9.716064E0,2.2356201E1,2.9914062E1,1.4241211E1,1.3418945E1,2.7160444E1,6.237239E1,1.6921387E1,1.23368225E1,2.5527344E0,4.1603123E1,3.723877E0,0E0,0E0,2.0881836E1,6.0143677E1,2.596399E1,2.2966064E1,7.6953125E-1,9.111565E0,8.409542E0,4.005615E0,3.367811E1,3.029509E1,3.826756E1,4.8866634E1,3.389154E1,4.6830444E1,4.7046837E1,3.2114227E1,6.6651344E1,4.4052956E1,5.874086E1,4.1830597E1,6.991524E1,2.8511093E1,7.2897865E1,1.1356466E2,2.2729366E1,3.631552E1,1.5227148E2,2.2125522E2,2.4169832E1,1.6952393E1,6.387799E1,3.4207733E1,1.2327985E2,1.6997052E2,3.6359253E1,9.6262695E1,8.9740234E1,6.932568E1,6.753516E1,8.219263E1,6.2039062E1,9.370758E1,7.384717E1,4.4332153E1,5.5028564E1,6.0716984E1,3.9818478E1,3.0880648E1,0E0,0E0,0E0,0E0,0E0,0E0,0E0,0E0,0E0,0E0,0E0,0E0,0E0,0E0,0E0,0E0,0E0,0E0,0E0,0E0,0E0,0E0,0E0,0E0,0E0,0E0,0E0,0E0,0E0,0E0,0E0,0E0,0E0,0E0,0E0,0E0,0E0,0E0,0E0,0E0,0E0,0E0,0E0,0E0,0E0,0E0,0E0,0E0,0E0,0E0,0E0,0E0,0E0,0E0,0E0,0E0,0E0,0E0,0E0,0E0,0E0,0E0,0E0,0E0,0E0,0E0,0E0,0E0,0E0,0E0,0E0,0E0,0E0,0E0,0E0,0E0,0E0,0E0,0E0,0E0,0E0,0E0,0E0,0E0,0E0,0E0,0E0,0E0,0E0,0E0,0E0,0E0,0E0,0E0,0E0,0E0,0E0,0E0,0E0,0E0,0E0,0E0,0E0,0E0,0E0,0E0,0E0,0E0,0E0,0E0,0E0,0E0,0E0,0E0,0E0,0E0,0E0,0E0,0E0,0E0],"parents":[2147483647,0,0,1,1,2,2,3,3,4,4,5,5,6,6,7,7,8,8,9,9,10,10,11,11,12,12,13,13,14,14,15,15,16,16,17,17,18,18,19,19,20,20,21,21,22,22,23,23,24,24,25,25,26,26,27,27,28,28,29,29,30,30,31,31,32,32,33,33,34,34,35,35,36,36,38,38,39,39,40,40,41,41,42,42,43,43,44,44,45,45,46,46,47,47,48,48,49,49,50,50,51,51,52,52,53,53,54,54,55,55,56,56,57,57,58,58,59,59,60,60,61,61,62,62,63,63,64,64,65,65,66,66,67,67,68,68,69,69,70,70,71,71,72,72,73,73,74,74,77,77,78,78,79,79,80,80,81,81,82,82,83,83,84,84,85,85,86,86,87,87,88,88,89,89,90,90,91,91,92,92,93,93,94,94,95,95,96,96,97,97,98,98,99,99,100,100,101,101,102,102,103,103,104,104,105,105,106,106,107,107,108,108,109,109,110,110,111,111,112,112,113,113,114,114,115,115,116,116,117,117,118,118,119,119,120,120,121,121,122,122,123,123,124,124],"right_children":[2,4,6,8,10,12,14,16,18,20,22,24,26,28,30,32,34,36,38,40,42,44,46,48,50,52,54,56,58,60,62,64,66,68,70,72,74,-1,76,78,80,82,84,86,88,90,92,94,96,98,100,102,104,106,108,110,112,114,116,118,120,122,124,126,128,130,132,134,136,138,140,142,144,146,148,-1,-1,150,152,154,156,158,160,162,164,166,168,170,172,174,176,178,180,182,184,186,188,190,192,194,196,198,200,202,204,206,208,210,212,214,216,218,220,222,224,226,228,230,232,234,236,238,240,242,244,-1,-1,-1,-1,-1,-1,-1,-1,-1,-1,-1,-1,-1,-1,-1,-1,-1,-1,-1,-1,-1,-1,-1,-1,-1,-1,-1,-1,-1,-1,-1,-1,-1,-1,-1,-1,-1,-1,-1,-1,-1,-1,-1,-1,-1,-1,-1,-1,-1,-1,-1,-1,-1,-1,-1,-1,-1,-1,-1,-1,-1,-1,-1,-1,-1,-1,-1,-1,-1,-1,-1,-1,-1,-1,-1,-1,-1,-1,-1,-1,-1,-1,-1,-1,-1,-1,-1,-1,-1,-1,-1,-1,-1,-1,-1,-1,-1,-1,-1,-1,-1,-1,-1,-1,-1,-1,-1,-1,-1,-1,-1,-1,-1,-1,-1,-1,-1,-1,-1,-1],